svm_type nu_svc
kernel_type rbf
gamma 0.0833333
nr_class 2
total_sv 110
rho 0.820862
label 1 2
probA -5.03941
probB 0.284825
nr_sv 37 73
SV
1.430072930702866 1:-0.40350031 2:-0.2223643 3:0.5560172 4:0.97125188 5:0.69844127 6:1.5734492 7:0.7789085 8:0.93968953 9:0.070383623 10:0.076701495 11:-0.28050703 12:0.050512655 
1.632119705219027 1:-0.3629738 2:-0.37279898 3:0.53500433 4:0.97116385 5:0.68146195 6:1.7887652 7:0.78598686 8:0.68733198 9:-0.18868331 10:0.36060278 11:-0.57160641 12:-0.06614161 
1.632119705219027 1:-0.38999147 2:-0.87580814 3:0.49352096 4:0.62459329 5:0.70053325 6:1.349914 7:0.39466492 8:0.53499913 9:0.1066645 10:-0.01235931 11:-0.12449333 12:-0.29835232 
1.632119705219027 1:-0.39674589 2:-1.013903 3:0.48555118 4:0.614795 5:0.68919754 6:1.1974179 7:0.3886199 8:0.55283331 9:0.17696628 10:-0.094159538 11:-0.034373934 12:-0.30994259 
0.7524120502222718 1:-0.43051798 2:1.2868268 3:0.85882259 4:1.2437859 5:1.2259906 6:0.41910651 7:0.85734672 8:1.386406 9:0.45695593 10:-0.39817244 11:0.27365076 12:-0.1297115 
1.632119705219027 1:-0.38999147 2:0.61870101 3:0.83919996 4:1.1921522 5:1.1741265 6:1.2120358 7:0.82216497 8:1.0612005 9:0.18446172 10:-0.052069173 11:-0.14354153 12:-0.22432502 
0.8212512080765201 1:-0.47779891 2:0.31434092 3:0.86567032 4:1.2285881 5:1.3057009 6:-0.12190042 7:0.80685329 8:1.8527301 9:0.59602972 10:-0.62857067 11:0.61223379 12:-0.1327194 
1.632119705219027 1:-0.46429007 2:-0.020927479 3:2.1326424 4:0.93866141 5:1.1693671 6:-0.70462382 7:0.54384837 8:1.2461544 9:0.72742356 10:-0.80625796 11:0.83864509 12:-0.2180868 
0.6128250739838729 1:-0.47104449 2:0.43488971 3:2.2004016 4:0.83086719 5:1.0541502 6:-0.92235669 7:0.47333406 8:1.2624105 9:0.56747793 10:-0.73551141 11:0.90327278 12:-0.65758275 
1.632119705219027 1:0.042291306 2:0.40403034 3:-0.17615203 4:0.43660186 5:-0.12323192 6:1.0931527 7:0.53490452 8:-0.35272868 9:-1.9959575 10:2.1146911 11:-2.0730401 12:0.28347907 
1.632119705219027 1:0.0017647956 2:0.50702928 3:-0.1564431 4:0.48469947 5:-0.10952774 6:1.0734905 7:0.58230271 8:-0.28555139 9:-1.7196705 10:1.8639208 11:-1.8841491 12:0.32997548 
1.632119705219027 1:-0.032007296 2:0.97852036 3:-0.14886934 4:0.33455622 5:-0.10832416 6:1.0227577 7:0.41575505 8:-0.26310473 9:-1.1664515 10:1.3128275 11:-1.3914622 12:0.16891184 
1.632119705219027 1:-0.038761715 2:0.13742697 3:-0.23071773 4:0.48124323 5:-0.083713713 6:0.97836656 7:0.56757119 8:-0.24691528 9:-1.4439376 10:1.5333409 11:-1.5079012 12:0.23701007 
1.632119705219027 1:-0.025252878 2:0.056356877 3:-0.11312433 4:0.52003931 5:0.0030282576 6:1.0284529 7:0.57381636 8:-0.24129246 9:-1.5005238 10:1.6290024 11:-1.6501453 12:0.1389067 
1.632119705219027 1:-0.032007296 2:0.56634637 3:-0.038308791 4:0.62647903 5:-0.10100808 6:1.2319166 7:0.73549201 8:-0.22109759 9:-1.7114339 10:1.8409119 11:-1.8422085 12:0.33952104 
1.554011908816952 1:-0.038761715 2:0.57703404 3:-0.067077255 4:0.56912139 5:-0.093802717 6:1.1315524 7:0.6690168 8:-0.22776395 9:-1.5760324 10:1.6777836 11:-1.6555928 12:0.415558 
0.6744435518976524 1:-0.32244729 2:-0.66398744 3:0.14235458 4:0.22320835 5:0.29013655 6:0.29694242 7:0.12422408 8:0.062341924 9:0.36131068 10:-0.37518453 11:0.35745327 12:-0.099343416 
1.632119705219027 1:-0.11981474 2:0.0021803204 3:-0.0678455 4:0.39075134 5:0.16812871 6:0.65569528 7:0.36106703 8:-0.19332829 9:-0.50888785 10:0.55788821 11:-0.57231908 12:0.029797351 
1.419774673886942 1:-0.22113101 2:0.90117506 3:-0.046865762 4:0.83335898 5:-0.11886404 6:1.9900366 7:0.97182061 8:0.37564509 9:-0.76565028 10:0.95900971 11:-1.1407427 12:0.065252397 
0.2759684505395257 1:-0.13332357 2:-0.25791334 3:-0.13560753 4:0.32384408 5:-0.016946681 6:0.6057951 7:0.36529151 8:-0.2059909 9:-0.54089113 10:0.55117389 11:-0.51060301 12:0.013821345 
1.632119705219027 1:-0.40350031 2:0.32835094 3:0.097858808 4:-0.022505034 5:0.033187523 6:-0.19749694 7:-0.0389131 8:0.21178762 9:0.78612478 10:-0.8434405 11:0.84114925 12:-0.34715158 
1.632119705219027 1:-0.42376356 2:0.94565291 3:0.22268536 4:0.023808875 5:0.10871006 6:-0.076478069 7:-0.019612769 8:0.27439159 9:0.72427175 10:-0.76989607 11:0.75817903 12:-0.52818279 
1.632119705219027 1:-0.41025473 2:0.91591155 3:0.26823817 4:2.989513 5:0.032849563 6:3.7137186 7:3.2921317 8:2.0312772 9:-2.7367997 10:2.6790508 11:-2.3269351 12:3.4659473 
1.632119705219027 1:-0.47104449 2:1.6265058 3:0.81711528 4:0.67017906 5:1.3329507 6:0.31518948 7:0.17780913 8:0.25265923 9:0.47639898 10:-0.15630344 11:-0.31969393 12:3.0407186 
0.5272238042946167 1:-0.32244729 2:1.3005446 3:0.16072445 4:0.082133099 5:-0.00069097512 6:0.25702794 7:0.091120588 8:0.0015216532 9:0.39186729 10:-0.39806938 11:0.36700761 12:-0.22035392 
1.632119705219027 1:-0.38323705 2:1.546207 3:0.046046876 4:-0.024398784 5:0.12542041 6:0.12233077 7:-0.079986178 8:0.086411285 9:0.55997633 10:-0.58528383 11:0.56289273 12:-0.41107677 
1.38298646375933 1:-0.42376356 2:1.3503017 3:0.095071705 4:0.075255719 5:0.11102405 6:0.070854361 7:0.036302914 8:0.41500828 9:0.63851748 10:-0.67492049 11:0.65948209 12:-0.46215356 
1.632119705219027 1:-0.36972822 2:0.85814077 3:-0.19999239 4:0.020232985 5:-0.1358525 6:0.34004372 7:0.079788079 8:0.14800911 9:0.37568985 10:-0.38438316 11:0.35827837 12:-0.240453 
1.632119705219027 1:-0.4372724 2:0.57077056 3:0.14825754 4:-0.073878073 5:0.13498975 6:-0.24720456 7:-0.13874799 8:0.1834228 9:0.82024083 10:-0.87622871 11:0.86873489 12:-0.55444341 
1.632119705219027 1:-0.38999147 2:0.88579542 3:-0.061174756 4:-0.022553912 5:-0.20033523 6:0.033877271 7:0.059722545 8:0.14214128 9:0.54851693 10:-0.58356735 11:0.57535904 12:-0.40933289 
0.5112494307859943 1:-0.23463985 2:0.12866412 3:3.2992361 4:1.8730032 5:-0.013170685 6:-2.4533829 7:2.0768651 8:0.95467515 9:0.1283136 10:0.83649301 11:-2.1398758 12:0.48814501 
0.1727804975111285 1:-0.48455333 2:-0.20986177 3:-0.44577005 4:1.8745099 5:-0.37576524 6:-3.3352863 7:2.2317684 8:3.3491724 9:0.076214647 10:0.1789769 11:-0.52796789 12:1.2297479 
1.11611051194087 1:-0.53183426 2:-0.65253508 3:-0.67315758 4:1.4831607 5:-0.36895238 6:-2.7965793 7:1.7961077 8:4.6941126 9:0.0056864773 10:-0.26783147 11:0.61789739 12:3.3580947 
1.222415465858015 1:-0.45753566 2:-0.086849619 3:3.2711553 4:1.9403413 5:-0.096200341 6:-3.6075825 7:2.1864218 8:3.2483249 9:-0.20889928 10:0.27501602 11:-0.34247079 12:1.9275049 
1.393756019958025 1:-0.53183426 2:-0.07148675 3:-0.74584625 4:1.1843985 5:-0.51094644 6:1.1434602 7:1.5257239 8:4.3989796 9:-0.0099846231 10:-0.042291935 11:0.11321826 12:2.4626123 
0.09778323997094489 1:-0.50481659 2:0.23208005 3:3.2223836 4:1.4849825 5:-0.3594079 6:-2.3701717 7:1.7940888 8:3.5616654 9:0.096388381 10:-0.33584836 11:0.64646179 12:1.4602765 
0.05484298562591735 1:-0.49806217 2:0.0047167105 3:2.3859211 4:1.7840165 5:-1.0154326 6:-1.8184813 7:2.4020261 8:3.967938 9:0.17129849 10:-0.34840033 11:0.56808179 12:2.4701752 
-1.632119705219027 1:-0.53183426 2:1.0933243 3:-1.2152282 4:0.18708075 5:-1.0761151 6:2.5768974 7:0.66166721 8:1.6307736 9:-0.24873977 10:0.25795974 11:-0.24530973 12:1.6995169 
-0.1327508465316785 1:0.86633035 2:1.8667584 3:-1.2791369 4:-0.97133688 5:-1.099438 6:-0.21281642 7:-0.60953615 8:-0.88619365 9:-1.3395124 10:0.77766862 11:0.10837116 12:12.727464 
-0.1717530990023051 1:4.0341526 2:1.5375768 3:-1.0977329 4:-1.3212398 5:-0.99304266 6:-0.12478931 7:-1.0414475 8:-0.90525347 9:-1.9013252 10:3.1714367 11:-4.6793376 12:7.4050969 
-0.1614547668142468 1:-0.53858868 2:1.3348685 3:-1.2461658 4:0.54065422 5:-1.0986203 6:4.326126 7:1.0621847 8:3.3403656 9:-0.15866439 10:0.26768376 11:-0.39756913 12:4.4858254 
-0.3959511880521514 1:-0.48455333 2:0.74900033 3:-0.92642478 4:-0.7308658 5:-0.73316257 6:-0.2880951 7:-0.49839895 8:-0.26855656 9:0.36617799 10:-0.48533463 11:0.60793754 12:1.1181341 
-0.009115232859424425 1:1.6498429 2:1.3147621 3:-1.300886 4:-1.427019 5:-1.1253695 6:-0.43030795 7:-1.1025026 8:-0.89918914 9:-0.040549533 10:0.49572144 11:-1.1004727 12:5.0434748 
-0.4725809487382676 1:-0.032007296 2:-0.4428114 3:0.21011373 4:0.6284489 5:0.70182483 6:1.7553523 7:0.39838289 8:-0.35426352 9:-2.7078517 10:2.8658299 11:-2.8051717 12:-0.12586704 
-0.1799578071459012 1:-0.24814869 2:1.5980759 3:0.31789261 4:0.87803133 5:0.95118216 6:2.3526244 7:0.56900712 8:-0.043041007 9:-2.2804727 10:2.3544792 11:-2.224427 12:0.60707819 
-1.632119705219027 1:-0.38999147 2:1.2975408 3:-0.22434747 4:-0.35873941 5:-0.0026711041 6:0.10850438 7:-0.3955905 8:-0.10000224 9:0.59419604 10:-0.59717545 11:0.5414821 12:-0.60050749 
-1.632119705219027 1:-0.38323705 2:0.58685947 3:-0.3511981 4:-0.42255173 5:-0.27356756 6:0.28189199 7:-0.35167436 8:-0.10183725 9:0.51483679 10:-0.50303574 11:0.43554298 12:-0.54266369 
-1.500801640939739 1:0.16387084 2:0.0098905241 3:-0.66254997 4:-0.2799407 5:-0.34251833 6:0.62966348 7:-0.16482553 8:-0.59251654 9:-1.5172555 10:1.6531018 11:-1.6824191 12:-0.047469974 
-0.8277517767149416 1:-0.22113101 2:1.07724 3:0.095688377 4:0.27675246 5:0.56914665 6:1.4527745 7:0.065523676 8:-0.30671556 9:-1.3407012 10:1.397943 11:-1.3398534 12:-0.10666384 
-1.632119705219027 1:-0.39674589 2:-0.84216172 3:0.24885998 4:0.078893246 5:0.68458568 6:0.89771657 7:-0.20206902 8:-0.031865075 9:0.085436321 10:-0.059116187 11:0.015330332 12:-0.51677572 
-1.632119705219027 1:-0.37648264 2:-0.37532107 3:0.28763018 4:0.38493255 5:0.71081263 6:1.5005606 7:0.12528697 8:0.19656761 9:-0.32072647 10:0.40071428 11:-0.47549111 12:-0.19840721 
-1.632119705219027 1:-0.40350031 2:0.19475701 3:0.34358616 4:0.67135858 5:0.79086091 6:1.9710447 7:0.40820764 8:0.62965045 9:-0.33782702 10:0.45322984 11:-0.57365919 12:-0.015945086 
-1.632119705219027 1:-0.27516636 2:0.13419832 3:0.23973726 4:0.62661155 5:0.71104459 6:1.8117384 7:0.39245463 8:0.03457794 9:-1.2502472 10:1.3649273 11:-1.3927505 12:-0.098478067 
-1.632119705219027 1:-0.2886752 2:0.25439516 3:0.25197512 4:0.68122092 5:0.81517941 6:1.9548317 7:0.40883683 8:0.10560959 9:-1.1805364 10:1.3308451 11:-1.4133254 12:-0.036298151 
-0.7862496310782079 1:-0.26841194 2:0.59267779 3:0.23670415 4:0.67522307 5:0.80372808 6:1.9351424 7:0.40704343 8:0.038935192 9:-1.4153959 10:1.5331881 11:-1.5485869 12:-0.071882618 
-0.8058038504612457 1:-0.30218403 2:-0.65855896 3:0.24476612 4:0.48392357 5:0.80955098 6:1.6851891 7:0.19303013 8:0.022397542 9:-0.88364866 10:1.0015079 11:-1.0704028 12:-0.055680733 
-0.07057109447525362 1:0.076063398 2:-3.8064837 3:0.61954981 4:-0.61972747 5:1.3628271 6:-0.59353175 7:-1.2612866 8:-0.90027434 9:0.75903627 10:-0.85466204 11:0.90633377 12:-1.2520401 
-0.005567346900848957 1:0.64343454 2:-1.6618318 3:-0.9643144 4:-1.3357234 5:-0.9627344 6:-0.52015321 7:-1.0702732 8:-0.90056487 9:0.4030177 10:-0.47980817 11:0.54204335 12:7.6613656 
-0.06724652068714149 1:0.50834618 2:-1.2465044 3:-0.99501672 4:-1.3808095 5:-0.9598114 6:-0.79640126 7:-1.1213679 8:-0.91383935 9:0.38373913 10:-0.45043787 11:0.50111092 12:5.7442186 
-0.1020538298164637 1:0.98790988 2:-1.281647 3:-1.0232538 4:-1.386205 5:-1.0103186 6:-0.46992941 7:-1.1059895 8:-0.88955245 9:0.439285 10:-0.21132386 11:-0.13770982 12:10.073604 
-0.02694525737627695 1:4.0206438 2:-3.4800607 3:3.7075514 4:0.87010307 5:4.4944413 6:-0.63168697 7:-0.9371875 8:-0.89684354 9:-1.813303 10:0.82886017 11:0.67002051 12:-0.5300384 
-0.0583513628125081 1:3.3384475 2:-3.0597135 3:3.6793594 4:0.86554684 5:4.0917744 6:-0.63313156 7:-0.77205388 8:-0.89335374 9:0.71811366 10:1.3140635 11:-4.1043651 12:1.280197 
-0.02198035757979906 1:2.8048484 2:-3.2532121 3:3.6673623 4:0.86511875 5:4.2239405 6:-0.67289304 7:-0.8283824 8:-0.90124791 9:-3.0100638 10:1.6768149 11:0.40881565 12:4.1763911 
-0.07043765447721176 1:4.0881879 2:-2.8092724 3:3.5149605 4:0.77787976 5:3.6633947 6:-0.66509646 7:-0.68796355 8:-0.8920159 9:0.57150114 10:1.6401359 11:-4.6557525 12:-0.71913499 
-0.1795106653018876 1:3.088534 2:-1.5364627 3:3.4201024 4:0.73814585 5:0.45212537 6:-1.0031707 7:0.6252197 8:-0.88127219 9:-0.72731431 10:8.1624542 11:-18.034419 12:4.4568466 
-0.6138380310082933 1:-0.49806217 2:0.8851081 3:3.1928134 4:0.66889567 5:0.42805455 6:-6.2237245 7:0.55881063 8:2.0358528 9:-0.4774508 10:0.1846249 11:0.25500308 12:3.3250137 
-0.02821771959453778 1:5.8240735 2:-2.8712299 3:3.7223226 4:0.88188096 5:4.3179203 6:-0.69032023 7:-0.84956266 8:-0.89476583 9:-2.0633172 10:2.7975624 11:-3.5724353 12:0.22042617 
-0.2292793313213333 1:-0.50481659 2:1.0634254 3:3.3598969 4:0.75617872 5:0.79000496 6:-4.1209779 7:0.50236947 8:-3.6556815 9:-0.44632461 10:0.32073645 11:-0.10792667 12:3.0880855 
-0.01631484021612871 1:4.0071349 2:-1.8797154 3:3.5357859 4:0.79184305 5:5.0905451 6:-0.59786321 7:-1.2756541 8:-0.89474492 9:0.67473414 10:-0.59237595 11:0.41444876 12:-1.0804105 
-0.3993832459293297 1:-0.53858868 2:1.1017735 3:0.26436726 4:0.72309192 5:0.81780442 6:0.58837687 7:0.45403137 8:-4.453135 9:0.37879534 10:-0.17604545 11:-0.13319111 12:3.4072271 
-0.179165420926012 1:3.2303768 2:-2.1330722 3:3.529231 4:0.7906666 5:0.81474008 6:-0.99860131 7:0.53005523 8:-0.91009922 9:-14.295234 10:9.1152239 11:-0.75084956 12:3.8800137 
-0.03322797336436439 1:1.9875638 2:-2.8116933 3:3.6213945 4:0.83298348 5:3.98089 6:-0.71343571 7:-0.76120356 8:-0.88690011 9:0.65315038 10:1.1593622 11:-3.6493225 12:-0.79798798 
-0.0942731946689422 1:2.3928289 2:-3.133491 3:3.6244245 4:0.8375019 5:5.2266753 6:-0.56439136 7:-1.2826917 8:-0.89438603 9:0.93197897 10:-0.95642134 11:0.89551072 12:-1.2783549 
-0.04821458639801424 1:4.7366121 2:-0.65069793 3:2.09883 4:0.091738239 5:2.2814755 6:-0.68441715 7:-0.86273036 8:-0.89727395 9:-4.2050483 10:2.5203869 11:0.15530119 12:-0.6221905 
-0.01520312068256794 1:5.9321442 2:-1.0187577 3:2.1000791 4:0.091762934 5:2.4954693 6:-0.73123011 7:-0.95313956 8:-0.89535506 9:-4.1840308 10:4.2371932 11:-3.8880754 12:-0.330898 
-0.007744880643296974 1:6.7224111 2:-1.7442249 3:2.0950258 4:0.11162981 5:2.5057993 6:-0.67363699 7:-0.93553497 8:-0.89477701 9:-1.7669933 10:2.8073405 11:-4.0214074 12:1.038701 
-0.07847985185072937 1:5.5809144 2:-0.70479507 3:2.1614158 4:0.11532361 5:2.282934 6:-0.76847943 7:-0.83726435 8:-0.89490794 9:-3.3738037 10:4.3914094 11:-5.4136769 12:0.44744825 
-0.02062599909359281 1:6.7494288 2:-1.4727552 3:2.0890505 4:0.089394881 5:2.2726059 6:-0.66559329 7:-0.86157341 8:-0.89477834 9:-1.7115482 10:2.1925879 11:-2.6641112 12:0.26085299 
-0.2251439814029767 1:2.879147 2:-2.6936632 3:3.6231745 4:0.83731339 5:0.7065963 6:-0.7108993 7:0.62734352 8:-0.89631338 9:-2.2673016 10:1.8448075 11:-1.0519744 12:2.6984409 
-0.08924486095181311 1:3.6018698 2:-2.553748 3:3.5928564 4:0.82147707 5:4.0967009 6:-0.74715641 7:-0.82287135 8:-0.89682816 9:-2.9823179 10:1.9576628 11:-0.28758463 12:5.2945813 
-0.04396609083224524 1:2.798094 2:-3.5398101 3:3.7060872 4:0.8699061 5:3.4477886 6:-0.86143963 7:-0.4950764 8:-0.895043 9:-2.8203297 10:3.6844376 11:-4.5569797 12:-0.23081306 
-0.118350667453243 1:1.3729117 2:-3.3759562 3:3.7021272 4:0.86970073 5:3.7262158 6:-1.1618046 7:-0.61297044 8:-0.91334827 9:-5.292304 10:4.1166469 11:-2.012588 12:-0.1727583 
-1.632119705219027 1:-0.1806045 2:-0.078973948 3:-0.49539443 4:-0.22374242 5:-0.23640485 6:0.96067754 7:-0.14752241 8:-0.33423383 9:-0.50152749 10:0.65657498 11:-0.81359043 12:-0.098219919 
-1.632119705219027 1:-0.45753566 2:1.513816 3:0.8761109 4:1.0330193 5:1.6085371 6:1.4398733 7:0.46259707 8:1.3127617 9:0.25491467 10:-0.14948848 11:-0.017128881 12:-0.15550752 
-1.030224278122268 1:-0.4372724 2:1.8170968 3:-0.038040187 4:-0.77471023 5:-0.37903937 6:-0.73315219 7:-0.69654225 8:-0.29788921 9:0.84129766 10:-0.92643942 11:0.95582608 12:-0.79350371 
-0.119922053861075 1:6.5603051 2:-1.0055792 3:2.0795539 4:0.076543368 5:2.9246408 6:-0.59954568 7:-1.1513439 8:-0.89474332 9:-0.48662092 10:0.12831101 11:0.3998274 12:-0.41086442 
-0.05636882807436919 1:5.7632837 2:-2.5499148 3:2.1005029 4:0.11411077 5:2.2128882 6:-0.74454148 7:-0.8090034 8:-0.89533143 9:-4.9937196 10:4.8576909 11:-4.1741952 12:1.5677568 
-0.04866259057681555 1:5.6957395 2:-1.4117884 3:2.1108164 4:0.12087483 5:2.5168609 6:-0.80845223 7:-0.92998596 8:-0.89578022 9:-3.4204491 10:1.9444104 11:0.37342863 12:3.3777549 
-0.08406504288768046 1:5.8308279 2:-2.201778 3:2.1466589 4:0.1129303 5:2.5225649 6:-0.56792865 7:-0.94118217 8:-0.89481343 9:-3.3142186 10:3.7916612 11:-4.0974077 12:4.0876098 
-0.08198854868356452 1:5.1418772 2:-3.1036253 3:3.3609864 4:0.71684544 5:3.8199725 6:-0.59602687 7:-0.82163145 8:-0.89499253 9:-4.372841 10:2.3495582 11:0.79591178 12:-0.35627072 
-1.632119705219027 1:-0.38999147 2:1.2222054 3:-0.27190792 4:-0.71824933 5:-0.47694938 6:-0.71947765 7:-0.5927258 8:-0.3720338 9:0.88187225 10:-0.89553008 11:0.8252269 12:-0.67800208 
-0.5526675212593798 1:-0.29542961 2:0.41182668 3:0.16562459 4:0.7657417 5:0.66388531 6:2.4410602 7:0.56624468 8:0.13213786 9:-1.7813036 10:1.8886967 11:-1.8534361 12:0.47977256 
-0.1401220023843409 1:-0.092797062 2:0.32119579 3:0.31812881 4:0.42647061 5:0.94608396 6:1.3369725 7:0.071793996 8:-0.47958833 9:-2.3690458 10:2.3690815 11:-2.1311924 12:1.3315951 
-1.632119705219027 1:-0.53183426 2:0.11112133 3:1.6080651 4:0.96702319 5:1.7393385 6:-0.62028238 7:0.33433555 8:1.6887989 9:0.75446033 10:-0.87040744 11:0.94971994 12:0.40892215 
-1.632119705219027 1:-0.53858868 2:0.34688381 3:1.0037822 4:0.81693561 5:1.5714117 6:-0.17769674 7:0.23932617 8:1.843167 9:0.6854478 10:-0.76649761 11:0.80606389 12:0.1179388 
-1.632119705219027 1:-0.48455333 2:0.88773242 3:0.5126632 4:0.53077822 5:1.1686004 6:1.3856769 7:0.093106383 8:1.0022357 9:0.33579342 10:-0.28590706 11:0.18545496 12:0.324426 
-0.1239239750640047 1:0.46106525 2:0.79628729 3:-1.2031644 4:-1.4151365 5:-1.1009282 6:-0.69905158 7:-1.0996913 8:-0.89326154 9:0.48427952 10:-0.48296024 11:0.43255664 12:6.7668245 
-0.1359749589383646 1:-0.50481659 2:1.5717116 3:0.85832086 4:0.17312403 5:1.5613067 6:0.51109383 7:-0.46837557 8:0.31272934 9:0.63478102 10:-0.64623823 11:0.59780832 12:-0.69168946 
-1.632119705219027 1:-0.47104449 2:0.28380448 3:1.330553 4:0.99077047 5:1.7160814 6:1.0349649 7:0.37042573 8:1.2900258 9:0.43655881 10:-0.36984703 11:0.23676931 12:0.094389073 
-1.632119705219027 1:-0.511571 2:0.27709533 3:1.2318256 4:0.78803968 5:1.8384495 6:0.57615009 7:0.094517382 8:1.2900885 9:0.61380474 10:-0.60415743 11:0.52960555 12:-0.29878118 
-0.8188971584030954 1:-0.511571 2:0.088931517 3:0.99783249 4:0.33904121 5:1.723853 6:0.45695284 7:-0.35358679 8:0.59710468 9:0.65597731 10:-0.65632312 11:0.5909021 12:-0.41638441 
-0.3781370197424722 1:-0.27516636 2:0.083307692 3:0.80768024 4:0.81640819 5:1.5791517 6:1.5564135 7:0.23547185 8:0.00082735613 9:-1.1804964 10:1.3145533 11:-1.3752996 12:2.1978084 
-1.632119705219027 1:-0.22788543 2:0.7345403 3:0.34169222 4:0.67478966 5:0.90914293 6:1.761777 7:0.36201446 8:-0.1625888 9:-1.7307115 10:1.7908017 11:-1.6973512 12:0.26281234 
-0.1695064426824973 1:2.0078271 2:0.13236227 3:-1.2034504 4:-1.3799587 5:-1.0949066 6:-0.3502515 7:-1.063334 8:-0.89609542 9:-0.44808908 10:0.71016071 11:-1.0156955 12:21.102968 
-0.139759364430785 1:3.1966047 2:-0.17479211 3:-1.2927828 4:-1.4240483 5:-1.1106554 6:-0.43618793 7:-1.1054357 8:-0.89361009 9:0.019563533 10:0.28022455 11:-0.68317672 12:15.558351 
-1.632119705219027 1:0.30571362 2:0.26272986 3:-0.69400223 4:-0.37538556 5:-0.46919324 6:0.68693933 7:-0.21684071 8:-0.67926019 9:-2.0400439 10:2.1957436 11:-2.1991094 12:0.7842018 
-0.220060103398783 1:0.69746989 2:0.57716307 3:-0.85159098 4:-0.36210777 5:-0.62989828 6:0.84303342 7:-0.13424121 8:-0.72406808 9:-3.1964273 10:3.4962445 11:-3.5762353 12:-7.8376786e-005 
-1.632119705219027 1:0.23141502 2:0.79952522 3:-0.74288775 4:-0.37041317 5:-0.5956743 6:0.51583379 7:-0.15788934 8:-0.62598401 9:-1.2160712 10:1.3294433 11:-1.3589493 12:0.21873676 
-1.632119705219027 1:-0.32244729 2:0.51466569 3:-0.32635173 4:-0.63624391 5:-0.51927015 6:-0.114008 7:-0.48415312 8:-0.39051363 9:0.47260439 10:-0.53531984 11:0.57173971 12:-0.5596022 
-1.632119705219027 1:-0.3629738 2:0.37039838 3:-0.33925034 4:-0.57765239 5:-0.37245665 6:0.090554671 7:-0.48140377 8:-0.32396561 9:0.41759077 10:-0.47702899 11:0.51459068 12:-0.57228266 
