svm_type nu_svc
kernel_type rbf
gamma 0.0833333
nr_class 2
total_sv 97
rho 11.1037
label 1 2
probA -2.83711
probB 0.0667126
nr_sv 48 49
SV
21.07116845494884 1:-0.33625222 2:-0.95320359 3:-0.52721739 4:-1.1431341 5:-0.29068265 6:-0.53860329 7:-1.1020611 8:-0.73764971 9:0.92478911 10:-0.97292759 11:0.93831555 12:-1.1149836 
21.07116845494884 1:-0.29171565 2:0.046357249 3:-0.56054107 4:-1.2035562 5:-0.39414385 6:-0.51675657 7:-1.1200217 8:-0.78026445 9:0.91825286 10:-0.93681561 11:0.8661696 12:-1.1842029 
7.338634879678005 1:-0.12841489 2:0.76641912 3:-0.18459652 4:-0.97242792 5:-0.41708938 6:-0.77941644 7:-0.85982475 8:-0.72469025 9:0.70156938 10:-0.49617167 11:0.16971719 12:-1.0034819 
5.291008797422474 1:-0.061610033 2:-0.77047806 3:-0.15608815 4:-0.98349749 5:-0.35807395 6:-0.7457716 7:-0.8987742 8:-0.75969314 9:0.7612778 10:-0.51708492 11:0.13639765 12:-1.0938757 
21.07116845494884 1:-0.48470746 2:-0.30188935 3:-0.56172325 4:-1.1835326 5:-0.31451047 6:-0.44789211 7:-1.1348086 8:-0.66621509 9:0.91877679 10:-0.97298492 11:0.94651814 12:-1.3193917 
17.58459725241528 1:-0.3214067 2:-1.4250844 3:-0.033201169 4:-0.93094728 5:0.19023214 6:-0.56200895 7:-1.0927646 8:-0.76872855 9:0.9096462 10:-0.91432133 11:0.82732008 12:-1.2825664 
21.07116845494884 1:-0.43274813 2:-0.47276499 3:-0.67251272 4:-1.2878255 5:-0.53665765 6:-0.52455425 7:-1.1458857 8:-0.71673685 9:0.89222071 10:-0.95788756 11:0.94834927 12:-1.3278163 
21.07116845494884 1:-0.40305708 2:-0.18137686 3:-0.51885211 4:-1.1830709 5:-0.27138164 6:-0.41350618 7:-1.1540346 8:-0.75725046 9:0.91338104 10:-0.95761784 11:0.91932801 12:-1.2486297 
4.180262259503811 1:-0.51439851 2:1.9484692 3:-0.50995132 4:-1.1343397 5:-0.28721133 6:-0.58973876 7:-1.0941474 8:-0.51650008 9:0.89421883 10:-0.95695073 11:0.9435666 12:-1.1910712 
21.07116845494884 1:-0.52924403 2:2.2459617 3:-0.51344997 4:-1.0856469 5:-0.4159264 6:-0.57961822 7:-0.98267453 8:-0.34574338 9:0.90604212 10:-0.95834815 11:0.93082024 12:-1.0699643 
21.07116845494884 1:-0.44759365 2:-1.8000642 3:-0.55381078 4:-1.1967711 5:-0.27682234 6:-0.48723 7:-1.1663475 8:-0.72213269 9:0.93291621 10:-0.98299608 11:0.94996398 12:-1.2696039 
21.07116845494884 1:-0.52182127 2:-1.3287222 3:-0.5517204 4:-1.1968276 5:-0.3039466 6:-0.47199055 7:-1.1540035 8:-0.64746327 9:0.92758753 10:-0.98143779 11:0.95362803 12:-1.3221871 
14.99520011876361 1:-0.52182127 2:0.030416595 3:-0.56356114 4:-1.2321265 5:-0.32425432 6:-0.52123263 7:-1.1828516 8:-0.64564669 9:0.91060272 10:-0.97687336 11:0.96620901 12:-1.353799 
21.07116845494884 1:-0.50697575 2:-0.29244798 3:-0.5026515 4:-1.179336 5:-0.18575998 6:-0.40736998 7:-1.1891579 8:-0.701142 9:0.91902505 10:-0.96543296 11:0.92926149 12:-1.313097 
21.07116845494884 1:-0.34367498 2:-0.16192223 3:-0.27715496 4:-0.96729181 5:-0.1929466 6:-0.50925334 7:-0.95678595 8:-0.64632372 9:0.92321194 10:-0.94877964 11:0.8863202 12:-1.1036343 
21.07116845494884 1:-0.38078879 2:-0.15894242 3:-0.24674995 4:-0.97376689 5:-0.3006031 6:-0.60276594 7:-0.91454548 8:-0.57938791 9:0.89856022 10:-0.90363819 11:0.81826784 12:-0.91559018 
21.07116845494884 1:-0.35852051 2:-0.22923216 3:-0.19883281 4:-0.96524245 5:-0.28292007 6:-0.59708846 7:-0.91342317 8:-0.62304567 9:0.87653262 10:-0.88363854 11:0.80303197 12:-0.96855441 
21.07116845494884 1:-0.34367498 2:0.86152656 3:-0.1551236 4:-0.91995678 5:-0.40932291 6:-0.67496275 7:-0.80668868 8:-0.53986606 9:0.83397423 10:-0.83781484 11:0.75749812 12:-0.93498809 
14.04125424221871 1:-0.51439851 2:-3.3703766 3:-0.53154481 4:-1.1887586 5:-0.27445276 6:-0.53818241 7:-1.1587747 8:-0.67092643 9:0.92484625 10:-0.98149904 11:0.95744666 12:-1.3749683 
13.47734018679322 1:-0.23233356 2:-1.9110153 3:-0.072746128 4:-0.97571806 5:-0.056740059 6:-0.70211091 7:-1.0281824 8:-0.75429222 9:0.81470812 10:-0.7547592 11:0.59725101 12:-1.18147 
21.07116845494884 1:-0.38078879 2:1.4766479 3:-0.59552436 4:-0.85859771 5:-0.46028989 6:-0.50361101 7:-0.71708908 8:-0.41494178 9:0.92156073 10:-0.96051311 11:0.91483129 12:-0.86052685 
21.07116845494884 1:-0.50697575 2:-1.9657427 3:-0.56732827 4:-1.1979694 5:-0.29251808 6:-0.51219327 7:-1.1604637 8:-0.66371157 9:0.93251497 10:-0.98026787 11:0.94438917 12:-1.281153 
21.07116845494884 1:-0.44017089 2:0.35014825 3:-0.54557329 4:-1.1989903 5:-0.28335524 6:-0.47998444 7:-1.1657573 8:-0.7358838 9:0.93251598 10:-0.98559142 11:0.95631741 12:-1.2523197 
21.07116845494884 1:-0.42532537 2:0.21660103 3:-0.5450844 4:-1.1986097 5:-0.30341693 6:-0.4908093 7:-1.156171 8:-0.73224403 9:0.91950858 10:-0.97310754 11:0.94581015 12:-1.1206836 
21.07116845494884 1:-0.45501641 2:-1.4716417 3:-0.55105983 4:-1.1995972 5:-0.29115138 6:-0.49691919 7:-1.1628475 8:-0.71825845 9:0.93151591 10:-0.98392244 11:0.95392035 12:-1.1826821 
21.07116845494884 1:-0.46986194 2:-1.5435838 3:-0.55782529 4:-1.2045635 5:-0.28445198 6:-0.48626854 7:-1.1712767 8:-0.71221214 9:0.93292238 10:-0.98361626 11:0.95134548 12:-1.2323727 
19.84234150383702 1:-0.46243918 2:-2.3329311 3:-0.5769939 4:-1.2291665 5:-0.30030591 6:-0.52577339 7:-1.1906064 8:-0.73885348 9:0.92367278 10:-0.98062127 11:0.95705555 12:-1.2623864 
21.07116845494884 1:-0.0022279378 2:-1.1785494 3:-0.12871115 4:-0.97163755 5:-0.15175678 6:-0.6966903 7:-0.98031882 8:-0.79791821 9:0.6890039 10:-0.66024789 11:0.55427171 12:-1.1189955 
21.07116845494884 1:-0.4179026 2:1.9578589 3:-0.1147608 4:-0.8703677 5:-0.43845408 6:-0.65156756 7:-0.73979139 8:-0.35488853 9:0.84545995 10:-0.91315457 11:0.91090313 12:-0.85044596 
17.93331536485456 1:-0.37336603 2:1.8095733 3:-0.059237681 4:-0.92062086 5:-0.44352061 6:-0.54724137 7:-0.79176606 8:-0.42871357 9:0.82236785 10:-0.90586387 11:0.92557641 12:-0.94128358 
21.07116845494884 1:-0.37336603 2:1.2034695 3:-0.075680218 4:-0.87934124 5:-0.34785228 6:-0.61444435 7:-0.79092219 8:-0.46603527 9:0.86700842 10:-0.91982748 11:0.89691846 12:-0.9375548 
21.07116845494884 1:-0.42532537 2:0.52864838 3:-0.55929633 4:-0.96799027 5:-0.42790581 6:-0.60643032 7:-0.85008365 8:-0.40963348 9:0.85058797 10:-0.93043374 11:0.94273764 12:-0.99744395 
21.07116845494884 1:-0.34367498 2:0.59336102 3:-0.47539127 4:-0.91360482 5:-0.44653169 6:-0.63302045 7:-0.78280908 8:-0.50632393 9:0.85256829 10:-0.87861603 11:0.82395938 12:-0.93220511 
21.07116845494884 1:-0.39563432 2:-0.53166502 3:-0.49310164 4:-1.0258527 5:-0.21282849 6:-0.61549492 7:-1.0109603 8:-0.61785602 9:0.86872328 10:-0.91803 11:0.89058747 12:-1.1386809 
8.469736257648636 1:-0.50697575 2:-1.9905315 3:-0.521807 4:-1.1934792 5:-0.18735564 6:-0.48889712 7:-1.203708 8:-0.70520102 9:0.93490112 10:-0.98543767 11:0.95276979 12:-1.2689792 
21.07116845494884 1:-0.52182127 2:-1.8969459 3:-0.49291114 4:-1.2005425 5:-0.29833966 6:-0.48022199 7:-1.1605812 8:-0.69741034 9:0.93815524 10:-0.98086823 11:0.93816002 12:-1.2067619 
21.07116845494884 1:-0.33625222 2:0.39329425 3:-0.21677482 4:-0.96846821 5:-0.41968531 6:-0.5903655 7:-0.85435959 8:-0.56443494 9:0.89759778 10:-0.90187604 11:0.8156115 12:-0.9726306 
21.07116845494884 1:-0.38078879 2:0.55145005 3:-0.33709549 4:-1.0711619 5:-0.33371122 6:-0.52247083 7:-1.004626 8:-0.6262701 9:0.92790996 10:-0.95400884 11:0.89172927 12:-1.0348618 
21.07116845494884 1:-0.28429289 2:-0.97091017 3:-0.30305344 4:-0.92849529 5:-0.17912823 6:-0.63747933 7:-0.92119126 8:-0.6810679 9:0.87354328 10:-0.89966075 11:0.84295073 12:-1.0026639 
17.51105357491852 1:-0.33625222 2:-0.92166021 3:-0.30293213 4:-0.98468583 5:-0.092781762 6:-0.52697105 7:-1.0213875 8:-0.68446303 9:0.89719388 10:-0.93231271 11:0.88435973 12:-1.1809542 
21.07116845494884 1:-0.23975632 2:-0.98594393 3:-0.19408199 4:-0.91794764 5:-0.18566433 6:-0.61130364 7:-0.9068067 8:-0.67652416 9:0.89772799 10:-0.9112238 11:0.83638413 12:-0.92703333 
21.07116845494884 1:-0.21748803 2:-0.35493743 3:-0.17994919 4:-0.91845002 5:-0.41283066 6:-0.59556387 7:-0.80345659 8:-0.65229194 9:0.91081082 10:-0.86706113 11:0.71985027 12:-0.76730956 
21.07116845494884 1:-0.21006527 2:-0.14394672 3:-0.23317627 4:-0.86917814 5:-0.40147382 6:-0.62123468 7:-0.75541892 8:-0.63785766 9:0.81068987 10:-0.8189446 11:0.7464809 12:-0.84048781 
21.07116845494884 1:-0.46986194 2:-0.42392229 3:-0.61739046 4:-1.2003136 5:-0.3317598 6:-0.48704667 7:-1.1450494 8:-0.68239745 9:0.89590196 10:-0.96582303 11:0.9611883 12:-1.3045891 
21.07116845494884 1:-0.50697575 2:-0.59461474 3:-0.65773063 4:-1.2245512 5:-0.34376933 6:-0.42437962 7:-1.1657424 8:-0.65832564 9:0.89295879 10:-0.96585297 11:0.96520788 12:-1.3504081 
21.07116845494884 1:-0.49213022 2:-0.97333407 3:-0.63935299 4:-1.2279329 5:-0.34113575 6:-0.49291742 7:-1.1706003 8:-0.67166669 9:0.8873305 10:-0.96387131 11:0.96832552 12:-1.3637546 
17.26366313178771 1:-0.27687013 2:-0.8167727 3:-0.096407783 4:-0.93460349 5:-0.037653759 6:-0.52752639 7:-0.99249266 8:-0.7287136 9:0.9098077 10:-0.86619174 11:0.71924916 12:-1.1382301 
21.07116845494884 1:-0.36594327 2:1.3573491 3:-0.34902476 4:-0.8108377 5:-0.53164695 6:-0.63885334 7:-0.63285618 8:-0.42495991 9:0.88610925 10:-0.88298829 11:0.78871406 12:-0.72883815 
-21.07116845494884 1:-0.52182127 2:-0.21793792 3:-0.47504595 4:-1.2403528 5:-0.03527037 6:-0.53407595 7:-1.3239037 8:-0.90253041 9:0.93559324 10:-0.98402569 11:0.94867618 12:-1.3600112 
-21.07116845494884 1:-0.49955298 2:0.043063144 3:-0.477506 4:-1.2458851 5:-0.17198049 6:-0.65250378 7:-1.2673573 8:-1.0230724 9:0.8534573 10:-0.92316724 11:0.92260073 12:-1.2940121 
-15.43090168781886 1:-0.52182127 2:-1.089584 3:-0.47129512 4:-1.1762029 5:-0.047390836 6:-0.46645506 7:-1.2490552 8:-0.97344696 9:0.92930565 10:-0.96866849 11:0.92270589 12:-0.79494461 
-1.180445002183728 1:-0.31398394 2:0.9778646 3:0.3025933 4:-0.78222379 5:0.4251842 6:-0.88778734 7:-1.0395425 8:-0.72145269 9:0.66332287 10:-0.6698556 11:0.61028954 12:-1.1000955 
-21.07116845494884 1:-0.38078879 2:1.3943265 3:0.36519636 4:-0.74594492 5:0.44157355 6:-0.87220513 7:-1.0078436 8:-0.62357089 9:0.73450297 10:-0.76323833 11:0.72396188 12:-1.0803743 
-8.131977300220393 1:-0.38078879 2:1.1526815 3:-0.26144292 4:-1.0351208 5:-0.40700697 6:-1.2835428 7:-0.93216705 8:-1.0238608 9:0.69830523 10:-0.46665614 11:0.10795907 12:-0.61491439 
-20.63547812154172 1:-0.52924403 2:0.023363125 3:-0.26096094 4:-0.71973676 5:-0.46398678 6:-0.19319017 7:-0.56537777 8:-2.0109709 9:0.81876317 10:-0.84130784 11:0.78575301 12:-0.8943361 
-21.07116845494884 1:-0.3214067 2:1.0168111 3:-0.43526575 4:-1.0269514 5:-0.53883804 6:-0.38940399 7:-0.86304913 8:-0.55971237 9:0.84662172 10:-0.89066834 11:0.85895334 12:-0.83959461 
-21.07116845494884 1:-0.46243918 2:1.323371 3:-0.42915135 4:-1.083317 5:-0.6945615 6:-0.67657699 7:-0.85272564 8:-0.39444883 9:0.87537847 10:-0.92010768 11:0.88630593 12:-0.92052998 
-21.07116845494884 1:-0.4179026 2:1.2475349 3:-0.41779287 4:-0.97804412 5:-0.64066132 6:-0.42853278 7:-0.76364333 8:-0.38961229 9:0.88482315 10:-0.93741826 11:0.91241383 12:-0.86908328 
-10.01242467566517 1:-0.44017089 2:0.89420633 3:-0.46902584 4:-1.0777437 5:-0.57160913 6:-0.51333966 7:-0.90293578 8:-0.42951395 9:0.8821023 10:-0.94791147 11:0.93958206 12:-0.81893491 
-21.07116845494884 1:-0.46243918 2:0.74755279 3:-0.46337743 4:-1.0343717 5:-0.46032525 6:-0.52485273 7:-0.90697299 8:-0.40217272 9:0.90237835 10:-0.95755047 11:0.9339529 12:-0.9709001 
-21.07116845494884 1:-0.49955298 2:1.1330116 3:-0.51426013 4:-1.0949095 5:-0.79292326 6:-0.67033691 7:-0.82026473 8:-0.30204353 9:0.86753012 10:-0.92472836 11:0.90720026 12:-0.95482072 
-21.07116845494884 1:-0.4179026 2:1.1793161 3:-0.46181535 4:-0.97550607 5:-0.66503141 6:-0.63276116 7:-0.74975576 8:-0.41031705 9:0.88352421 10:-0.91629504 11:0.86682301 12:-0.84674567 
-7.578769179239528 1:-0.51439851 2:1.4502208 3:-0.43295225 4:-0.82887953 5:-0.56550513 6:-0.63189794 7:-0.63686319 8:0.052041126 9:0.84050747 10:-0.91379363 11:0.91898604 12:-0.89589016 
-21.07116845494884 1:-0.43274813 2:0.96970792 3:-0.50040731 4:-1.1359508 5:-0.6578994 6:-0.33232316 7:-0.92635654 8:-0.4971511 9:0.88762491 10:-0.9259535 11:0.88295976 12:-0.96699341 
-21.07116845494884 1:-0.50697575 2:-1.439336 3:-0.67346477 4:-1.2441203 5:-0.46020964 6:-0.49944389 7:-1.1336311 8:-0.58163266 9:0.9121818 10:-0.96858196 11:0.94550811 12:-1.3149831 
-12.26388150172428 1:-0.52182127 2:1.3732674 3:0.26265798 4:-0.56660567 5:0.20747272 6:-0.62676212 7:-0.7070273 8:-0.042079802 9:0.88346182 10:-0.93816254 11:0.91590985 12:-0.95659104 
-21.07116845494884 1:-0.41047984 2:-0.010285137 3:-0.95612404 4:-1.4552838 5:-0.57415506 6:-0.47418107 7:-1.3096527 8:-0.90150965 9:0.92177975 10:-0.98073115 11:0.95984394 12:-1.2804417 
-21.07116845494884 1:-0.49955298 2:0.88164811 3:-0.36492788 4:-1.0936882 5:-0.68549796 6:-0.71649117 7:-0.86807548 8:-0.31008632 9:0.83437796 10:-0.88823971 11:0.86995351 12:-1.0523893 
-21.07116845494884 1:-0.50697575 2:0.92386951 3:-0.50938242 4:-1.0252437 5:-0.28793468 6:-0.40303322 7:-0.97595307 8:-0.43770406 9:0.89733122 10:-0.96576913 11:0.95914812 12:-0.8798579 
-21.07116845494884 1:-0.50697575 2:-1.477205 3:-0.076201245 4:-0.90893921 5:-0.31486424 6:-0.70679526 7:-0.83798566 8:-0.36731332 9:0.88147069 10:-0.89656971 11:0.82537807 12:-0.99998472 
-21.07116845494884 1:-0.52924403 2:-2.2466339 3:-0.29398237 4:-0.98354634 5:-0.29692974 6:-0.49327709 7:-0.92679085 8:-0.32491726 9:0.92315219 10:-0.98094341 11:0.95847653 12:-1.1356243 
-21.07116845494884 1:-0.39563432 2:-0.031592384 3:-0.57749497 4:-1.1905332 5:-0.51965896 6:-0.33381902 7:-1.0485487 8:-0.65289168 9:0.88382758 10:-0.92435344 11:0.88447375 12:-0.97925451 
-21.07116845494884 1:-0.52924403 2:-0.69721848 3:-0.50555094 4:-1.1189308 5:-0.52665146 6:-0.57204977 7:-0.96799398 8:-0.4077581 9:0.90099591 10:-0.96216625 11:0.94615296 12:-1.0972698 
-21.07116845494884 1:-0.49955298 2:0.058392474 3:-0.5892112 4:-1.1084232 5:-0.57640417 6:-0.69249043 7:-0.93388789 8:-0.42719957 9:0.90171481 10:-0.92983693 11:0.87274048 12:-0.99508109 
-21.07116845494884 1:-0.39563432 2:0.022376758 3:-0.46381918 4:-1.1259455 5:-0.72419575 6:-0.7342325 7:-0.88522692 8:-0.50170481 9:0.81672414 10:-0.86892556 11:0.85038011 12:-0.93916365 
-21.07116845494884 1:0.28725978 2:-1.1390936 3:-0.044584845 4:-1.0205932 5:0.54136031 6:-0.48223885 7:-1.3502008 8:-0.91654546 9:0.90835652 10:-0.93476476 11:0.87486391 12:-1.5362516 
-1.737044228693329 1:0.29468254 2:-0.76575991 3:-0.041563526 4:-0.97502704 5:0.53810301 6:-0.45629265 7:-1.299483 8:-0.91104279 9:0.78842188 10:-0.82472243 11:0.78933284 12:-1.4483921 
-17.32196422734778 1:-0.26944737 2:-1.1117744 3:-0.96184044 4:-1.3831037 5:-0.71940052 6:-0.38129736 7:-1.1652449 8:-0.79724785 9:0.89478736 10:-0.94664372 11:0.91970603 12:-1.2348638 
-21.07116845494884 1:-0.44017089 2:-1.296365 3:-0.65633501 4:-1.1862067 5:-0.37392309 6:-0.30170602 7:-1.1105257 8:-0.69394801 9:0.85481068 10:-0.9041496 11:0.87816644 12:-1.1199157 
-21.07116845494884 1:-0.3214067 2:-1.1003421 3:-0.65906458 4:-1.2472119 5:-0.45445782 6:-0.58293716 7:-1.1396017 8:-0.75797011 9:0.91945416 10:-0.9479009 11:0.88939747 12:-1.0822878 
-21.07116845494884 1:-0.4179026 2:-1.6731215 3:-0.92509384 4:-1.2414782 5:-0.69289602 6:-0.51897769 7:-1.0243592 8:-0.62014094 9:0.93580271 10:-0.97355378 11:0.92492829 12:-1.1992134 
-21.07116845494884 1:-0.52924403 2:-1.4153715 3:-0.0043991207 4:-0.87232839 5:-0.18944818 6:-0.78316456 7:-0.85579073 8:-0.27124494 9:0.87109524 10:-0.87589663 11:0.79298506 12:-1.1331237 
-21.07116845494884 1:-0.48470746 2:-0.84828678 3:-0.12673722 4:-0.87120241 5:-0.39738499 6:-0.67182151 7:-0.75947584 8:-0.34714422 9:0.90993785 10:-0.90286597 11:0.801258 12:-0.97869594 
-20.49591579285996 1:-0.50697575 2:-1.132193 3:0.063156651 4:-0.75298394 5:-0.040953842 6:-0.66220935 7:-0.7947679 8:-0.31978846 9:0.88988403 10:-0.8974254 11:0.81599705 12:-1.0504524 
-21.07116845494884 1:0.049731395 2:0.019953371 3:-0.14646072 4:-1.0354458 5:0.39882887 6:-0.4882285 7:-1.3010613 8:-0.91750465 9:0.88285165 10:-0.92714643 11:0.89204318 12:-1.0744343 
-21.07116845494884 1:0.042308634 2:-0.47514791 3:-0.13645788 4:-1.0276563 5:0.41425728 6:-0.44005524 7:-1.2997019 8:-0.90922244 9:0.81269105 10:-0.86261676 11:0.84165881 12:-1.1584982 
-21.07116845494884 1:-0.076455557 2:-0.31478868 3:-0.12707516 4:-0.98727406 5:0.36166893 6:-0.34366739 7:-1.2320234 8:-0.88451634 9:0.77780774 10:-0.8157361 11:0.78344934 12:-1.1401911 
-21.07116845494884 1:-0.48470746 2:-0.68652482 3:-0.065088927 4:-0.81688707 5:-0.42509339 6:-0.70268129 7:-0.68812321 8:-0.27238 9:0.87086344 10:-0.85122598 11:0.73801166 12:-1.0082507 
-21.07116845494884 1:0.25756873 2:-1.5119646 3:-0.1335678 4:-1.0348815 5:0.43458361 6:-0.46141425 7:-1.3168039 8:-0.91077582 9:0.81125866 10:-0.87685784 11:0.87549542 12:-1.4216221 
-1.549231120624026 1:0.11653625 2:-0.80338895 3:-0.083431182 4:-0.92895308 5:0.44117994 6:-0.34292039 7:-1.2053793 8:-0.88017324 9:0.6360859 10:-0.68229225 11:0.67473628 12:-1.3482933 
-21.07116845494884 1:-0.52924403 2:-1.9080016 3:-0.74575144 4:-1.3460307 5:-0.43183595 6:-0.50029637 7:-1.256708 8:-0.83563054 9:0.90126263 10:-0.96835751 11:0.95966883 12:-1.0839358 
-21.07116845494884 1:-0.51439851 2:0.050377812 3:-0.27691726 4:-1.0215532 5:0.049416051 6:-0.51662961 7:-1.1262509 8:-0.62139518 9:0.92104731 10:-0.97285101 11:0.94316891 12:-1.0140936 
-20.74198072738357 1:-0.4772847 2:-1.0164503 3:-0.17012823 4:-0.86638179 5:0.24033467 6:-0.39901507 7:-1.0459243 8:-0.57601299 9:0.883114 10:-0.92961626 11:0.89722554 12:-1.022452 
-21.07116845494884 1:-0.39563432 2:-1.4505543 3:-0.78221472 4:-1.2797827 5:-0.44078894 6:-0.43427683 7:-1.1810415 8:-0.73140547 9:0.88979055 10:-0.92607136 11:0.88031559 12:-1.308879 
-21.07116845494884 1:-0.35109775 2:-1.8956926 3:-0.6533741 4:-1.1231479 5:-0.44526825 6:-0.46347298 7:-1.00977 8:-0.62844244 9:0.8573404 10:-0.86994335 11:0.79811609 12:-1.1037856 
-20.84839400453921 1:-0.49213022 2:-0.74185048 3:-0.64314318 4:-1.1192028 5:-0.69387864 6:-0.59795382 7:-0.89180776 8:-0.41684801 9:0.87537054 10:-0.91869893 11:0.8831597 12:-1.158808 
-21.07116845494884 1:-0.52924403 2:-1.1220014 3:-0.76036513 4:-1.3827103 5:-0.35492502 6:-0.42869732 7:-1.3315101 8:-0.89404308 9:0.92345787 10:-0.97723478 11:0.94975534 12:-1.3382274 
