svm_type nu_svc
kernel_type rbf
gamma 0.0833333
nr_class 2
total_sv 83
rho 1.96948
label 1 2
probA -3.89894
probB -0.0944549
nr_sv 41 42
SV
4.515677875611677 1:-0.0048585784 2:-0.43785786 3:-0.75971494 4:-0.77865826 5:-0.45677239 6:0.068992189 7:-0.6735762 8:-0.71005416 9:-0.27673184 10:0.30427232 11:-0.30843773 12:-0.29114039 
4.515677875611677 1:-0.37428032 2:1.3270498 3:-0.20005408 4:-0.36548644 5:0.045497914 6:0.10540887 7:-0.42412821 8:-0.1203164 9:0.58081549 10:-0.5795721 11:0.51319988 12:-0.6482202 
4.515677875611677 1:-0.3673101 2:0.5977133 3:-0.32932754 4:-0.43025382 5:-0.23494219 6:0.28172576 7:-0.37943933 8:-0.12215145 9:0.49852254 10:-0.48293478 11:0.40749446 12:-0.58763888 
4.515677875611677 1:-0.13729279 2:-0.29425733 3:-0.31917891 4:-0.47496224 5:-0.16666894 6:0.19003559 7:-0.45737078 8:-0.5205293 9:0.052758073 10:-0.087787096 11:0.12646339 12:-0.47447272 
4.515677875611677 1:-0.15820345 2:-0.085598106 3:-0.47627801 4:-0.228469 5:-0.19647025 6:0.971979 7:-0.17169513 8:-0.3545531 9:-0.5554139 10:0.70744143 11:-0.83888347 12:-0.12216137 
4.515677875611677 1:0.023022308 2:-0.18471973 3:-0.55111992 4:-0.63202386 5:-0.214007 6:0.28079546 7:-0.61184568 8:-0.6813689 9:-0.38182071 10:0.42270076 11:-0.4321131 12:-0.68268951 
4.515677875611677 1:-0.13032257 2:0.57448023 3:-0.57330067 4:-0.27244646 5:-0.33562784 6:1.2098112 7:-0.16264643 8:-0.39157486 9:-0.70016645 10:0.87055404 11:-1.0092052 12:-0.024817724 
4.515677875611677 1:0.51093782 2:0.73111378 3:-0.80944744 4:-1.1875662 5:-0.55915779 6:-0.3220055 7:-1.0844145 8:-0.87978721 9:0.33884566 10:-0.27027921 11:0.14525519 12:0.19430377 
4.515677875611677 1:0.44123561 2:1.1105237 3:-0.85145222 4:-1.0933901 5:-0.60028414 6:-0.30976826 7:-0.9629137 8:-0.86081953 9:0.11108135 10:-0.1783079 11:0.25143766 12:-0.96295486 
2.8033987596563 1:0.53184849 2:1.3659837 3:-0.95772308 4:-1.1453372 5:-0.63605869 6:-0.40752113 7:-1.005648 8:-0.88869492 9:0.21855647 10:-0.31605574 11:0.4157074 12:-0.89290933 
4.515677875611677 1:1.019764 2:0.96900647 3:-0.95602256 4:-1.3612854 5:-0.73581804 6:-0.4852805 7:-1.203636 8:-0.9072145 9:0.53943706 10:-0.67670503 11:0.7911532 12:0.1746918 
0.5859435960149972 1:1.4937391 2:-4.4505484 3:-1.1649513 4:-1.1486745 5:-0.88682231 6:-0.39927197 7:-0.90517745 8:-0.90203673 9:-0.9536733 10:0.70345515 11:-0.27876182 12:-0.52617706 
4.515677875611677 1:0.67125292 2:-0.51505851 3:-1.1996886 4:-1.4674946 5:-0.97733001 6:-0.5295603 7:-1.2210663 8:-0.90770469 9:0.62916381 10:-0.69564619 11:0.71003675 12:-1.0850111 
4.515677875611677 1:0.30183117 2:-0.91723625 3:-1.008246 4:-1.2315663 5:-0.77144342 6:-0.292861 7:-1.0450125 8:-0.84175943 9:0.38391605 10:-0.43010418 11:0.44603535 12:-0.92281042 
4.515677875611677 1:0.55275915 2:-0.78247065 3:-1.1803025 4:-1.4333518 5:-0.90563516 6:-0.47778374 7:-1.2129941 8:-0.9028431 9:0.53893511 10:-0.60087719 11:0.61955695 12:-0.81711891 
4.515677875611677 1:-0.20002478 2:-1.6723178 3:-0.61511998 4:-0.79668743 5:-0.28618072 6:-0.30879539 7:-0.76443198 8:-0.61467467 9:0.43338114 10:-0.42219771 11:0.35962688 12:0.17369028 
4.515677875611677 1:-0.14426301 2:-1.6318388 3:-0.55240537 4:-0.78448149 5:-0.18191372 6:0.11102417 7:-0.79421284 8:-0.65758941 9:0.31914238 10:-0.20772606 11:0.030389293 12:0.957709 
4.515677875611677 1:-0.032739465 2:-1.1185466 3:-0.65909284 4:-0.52664353 5:-0.3610793 6:0.72769869 7:-0.43391083 8:-0.59183625 9:-0.58124996 10:0.77360095 11:-0.95345766 12:1.3366887 
4.515677875611677 1:-0.13032257 2:-2.1805326 3:-0.65428766 4:-0.87727545 5:-0.33451934 6:-0.058129756 7:-0.83370219 8:-0.68405416 9:0.41137445 10:-0.25400008 11:0.0079100949 12:-0.22813742 
1.827638055176463 1:2.3998679 2:-1.6033582 3:-1.1181236 4:-1.4063379 5:-0.8898234 6:-0.37742226 7:-1.1896113 8:-0.90938874 9:0.071310239 10:0.30724261 11:-0.79676613 12:2.3897937 
1.012111193801187 1:1.7725479 2:0.18255949 3:-1.1754098 4:-1.400097 5:-0.97306952 6:-0.41243511 7:-1.1481102 8:-0.90711097 9:0.19902627 10:-0.15042617 11:0.066398927 12:1.1349396 
2.661789642135565 1:1.1034067 2:-1.6077115 3:-1.1477942 4:-1.4552716 5:-0.88902596 6:-0.5867772 7:-1.2441971 8:-0.90174284 9:0.73215682 10:-0.75863258 11:0.71064049 12:0.46985336 
0.1409997000877987 1:0.58064004 2:-1.9143134 3:-1.0715461 4:-1.409386 5:-0.84915386 6:-0.5193651 7:-1.2098855 8:-0.8981393 9:0.73147471 10:-0.7647395 11:0.72546003 12:-0.33241352 
0.5744294506040674 1:1.6958755 2:-2.3403966 3:-1.0543684 4:-0.95054922 5:-0.82883544 6:-0.10599134 7:-0.70959751 8:-0.87793713 9:-2.8321086 10:2.8529248 11:-2.5634817 12:1.3765461 
3.551038860427564 1:1.5982924 2:-0.78859814 3:-1.1163755 4:-1.3373918 5:-0.89616257 6:-0.48809931 7:-1.1105349 8:-0.90110522 9:-0.14296175 10:0.13634469 11:-0.11197942 12:1.8890416 
1.41828875821133 1:1.7307266 2:-0.65435823 3:-0.94992198 4:-0.85013874 5:-0.73616512 6:0.29966168 7:-0.63676544 8:-0.8679702 9:-4.0789243 10:4.185157 11:-3.8652914 12:2.1088572 
4.515677875611677 1:0.02999253 2:0.21993337 3:-0.75909835 4:-1.1109671 5:-0.58753884 6:-0.30715701 7:-0.98769649 8:-0.8050031 9:0.4889901 10:-0.54640705 11:0.56490166 12:-0.95035455 
4.515677875611677 1:0.078784081 2:0.83784812 3:-0.83887544 4:-0.73813782 5:-0.60109257 6:0.40889673 7:-0.56869711 8:-0.70450672 9:-0.73660513 10:0.76238046 11:-0.71300112 12:-0.6093302 
1.184932033380475 1:1.1173471 2:-3.874988 3:-1.0223421 4:-1.4085991 5:-0.84111954 6:-0.66959116 7:-1.2123506 8:-0.90531297 9:0.74292509 10:-0.78707648 11:0.76036891 12:-0.85484278 
1.432813205081626 1:0.98491289 2:0.46346465 3:-0.92284698 4:-0.48979255 5:-0.7302866 6:0.67904184 7:-0.23967893 8:-0.79029357 9:-3.9829112 10:4.2068614 11:-4.0474582 12:0.015815837 
0.5912780352327386 1:0.74792536 2:0.58776237 3:-0.83927786 4:-0.36890522 5:-0.6038264 6:0.85234735 7:-0.15818023 8:-0.74439584 9:-3.3499367 10:3.6224499 11:-3.5954342 12:-0.019375181 
2.61154382842905 1:0.26698006 2:0.81596147 3:-0.72849841 4:-0.37733492 5:-0.56839671 6:0.51961987 7:-0.18224448 8:-0.64630963 9:-1.2963723 10:1.3981615 11:-1.3830394 12:0.2097956 
4.515677875611677 1:0.085754303 2:0.42393216 3:-0.6936423 4:-0.72757133 5:-0.37925667 6:0.3120956 7:-0.64913541 8:-0.73279582 9:-0.74116417 10:0.7620852 11:-0.70602198 12:-0.1631427 
4.515677875611677 1:0.085754303 2:0.55834704 3:-0.70095815 4:-0.72474438 5:-0.36942343 6:0.30775525 7:-0.65008597 8:-0.72986261 9:-0.75143902 10:0.75791709 11:-0.68233437 12:-0.24384292 
0.2924933842576814 1:0.53184849 2:-0.6241846 3:-0.81805592 4:-0.7745051 5:-0.58824107 6:0.52939939 7:-0.6143575 8:-0.81252834 9:-2.071655 10:2.3418215 11:-2.4544138 12:2.255429 
4.515677875611677 1:0.12757563 2:-0.74551388 3:-0.78823044 4:-0.94495545 5:-0.57041496 6:0.00053030385 7:-0.81074704 8:-0.7792858 9:-0.20175268 10:0.22527747 11:-0.2326984 12:-0.13832692 
4.515677875611677 1:0.057873416 2:-1.1907214 3:-0.7597377 4:-1.14281 5:-0.44591522 6:-0.21204827 7:-1.0818344 8:-0.83549936 9:0.50427234 10:-0.48044808 11:0.39388846 12:-0.39786903 
4.515677875611677 1:1.1521982 2:0.92367231 3:-1.1181667 4:-1.3586163 5:-0.91105498 6:-0.51671421 7:-1.1278807 8:-0.89651921 9:0.42379902 10:-0.50250521 11:0.55535465 12:0.33925123 
4.515677875611677 1:0.12060541 2:0.72064442 3:-0.59027478 4:-0.3834029 5:-0.33655908 6:0.50750711 7:-0.28528093 8:-0.62772007 9:-1.0719127 10:1.1229902 11:-1.0683946 12:-0.3242895 
1.867112486183485 1:0.13454585 2:0.76931399 3:-0.87854795 4:-0.84558762 5:-0.61015298 6:0.27535541 7:-0.68406667 8:-0.7549674 9:-0.64569967 10:0.63925629 11:-0.55903111 12:-0.73788461 
4.515677875611677 1:0.13454585 2:-2.4289266 3:-0.8030602 4:-1.1840758 5:-0.49236954 6:-0.33357546 7:-1.1082894 8:-0.83340154 9:0.60564294 10:-0.58476281 11:0.49064056 12:-1.1559615 
-4.515677875611677 1:-0.074560795 2:0.504594 3:-0.86548348 4:-0.83070288 5:-0.82782875 6:0.1871246 7:-0.57713782 8:-0.64013884 9:-0.033146976 10:0.040796203 11:-0.046829472 12:-0.33473306 
-1.380944539324833 1:4.2330362 2:0.74166428 3:-1.1892402 4:-1.5087975 5:-1.1028058 6:-0.58530468 7:-1.214736 8:-0.91501216 9:0.82047425 10:-0.78095367 11:0.6391537 12:0.60952471 
-2.434785453862376 1:-0.14426301 2:-1.0618142 3:-1.292889 4:-1.5549043 5:-1.0159104 6:-0.52523845 7:-1.3019537 8:-0.90889219 9:0.84180908 10:-0.91242977 11:0.90836402 12:-0.91940361 
-0.8036524098198034 1:1.4170666 2:0.87572705 3:-1.2958977 4:-1.4485892 5:-1.0339139 6:-0.49433638 7:-1.1765996 8:-0.9120145 9:0.40735085 10:-0.5338938 11:0.64943264 12:1.7808245 
-4.515677875611677 1:0.82459779 2:0.40983276 3:-1.2953498 4:-1.5529469 5:-1.0296032 6:-0.5382915 7:-1.2940954 8:-0.91623776 9:0.8254376 10:-0.84384273 11:0.77517816 12:0.43713705 
-0.6542758811602382 1:0.41335472 2:1.0831294 3:-1.2942033 4:-1.5443125 5:-1.0298727 6:-0.5695567 7:-1.2844101 8:-0.91744568 9:0.86366993 10:-0.91478354 11:0.88346363 12:0.073397338 
-4.410756351757224 1:-0.47883365 2:-3.7688498 3:-0.56694098 4:-0.82830132 5:-0.18116872 6:1.1501753 7:-0.84310688 8:-0.59765052 9:0.44248138 10:-0.37191377 11:0.23278336 12:0.095564699 
-0.873707078818501 1:-0.32548877 2:-0.13522583 3:-0.73751441 4:-0.43282613 5:-0.36917266 6:2.0719893 7:-0.32653007 8:-0.60133942 9:-0.67708091 10:0.99725803 11:-1.3290363 12:1.3024483 
-4.515677875611677 1:-0.29063767 2:-0.2864997 3:-1.1818534 4:-0.92891065 5:-0.93140373 6:2.132517 7:-0.64299774 8:-0.86821956 9:-0.99096307 10:1.22757 11:-1.4180222 12:0.25658613 
-4.355411603639179 1:-0.09547146 2:-0.9144073 3:-0.052495105 4:-0.89645347 5:-0.2582044 6:-0.86126471 7:-0.88666787 8:-0.74518516 9:0.7597954 10:-0.50559494 11:0.097462834 12:-1.0928473 
-4.515677875611677 1:-0.074560795 2:0.50421096 3:-0.86535065 4:-0.83249626 5:-0.82641989 6:0.1850309 7:-0.57971148 8:-0.64078016 9:-0.029546758 10:0.03697422 11:-0.043126956 12:-0.34051102 
-0.9759768772575901 1:-0.36033988 2:-2.971707 3:-0.48137149 4:-1.1463111 5:-0.20976181 6:-0.57934004 7:-1.1838176 8:-0.80597753 9:0.91481904 10:-0.96962736 11:0.93730191 12:-1.3035533 
-0.6163714717286695 1:0.97794267 2:-0.8004611 3:-1.1927187 4:-1.4562486 5:-0.96530307 6:-0.53981568 7:-1.2135936 8:-0.91675605 9:0.88727552 10:-0.75042011 11:0.47734576 12:1.9257843 
-4.515677875611677 1:-0.23487589 2:-1.724462 3:-1.1852558 4:-1.5048509 5:-0.89190138 6:-0.565342 7:-1.2979729 8:-0.91486697 9:0.92253703 10:-0.98308441 11:0.9571988 12:-0.99981312 
-4.258643520345552 1:0.25303962 2:0.020237568 3:0.15599363 4:-0.18004664 5:0.75234026 6:0.24204729 7:-0.51215688 8:-0.77443212 9:-1.591213 10:1.473023 11:-1.1451685 12:-0.55583396 
-3.060409264853383 1:0.12757563 2:0.013222416 3:0.16348393 4:-0.41963316 5:0.78371753 6:0.090993968 7:-0.79082948 8:-0.79549798 9:-0.60092058 10:0.51836418 11:-0.34630843 12:-0.66745061 
-4.515677875611677 1:0.26698006 2:-0.77716985 3:0.11332998 4:-0.53817608 5:0.71629074 6:-0.039258255 7:-0.89425217 8:-0.83407236 9:-0.42681758 10:0.36764812 11:-0.24476493 12:-0.92455253 
-1.84767668775358 1:0.90127023 2:-1.5175968 3:0.061773972 4:-0.93412486 5:0.61873956 6:-0.57510008 7:-1.2927304 8:-0.91613626 9:0.77719633 10:-0.89580956 11:0.9600042 12:-1.297493 
-1.061437370578391 1:0.071813859 2:0.41259043 3:-0.15093179 4:0.44211482 5:-0.079234028 6:1.1050263 7:0.52310326 8:-0.37308715 9:-2.1067758 10:2.2051234 11:-2.0952218 12:0.28540505 
-4.281706059479207 1:-0.0048585784 2:0.99763748 3:-0.12312242 4:0.33826629 5:-0.061979344 6:1.0374926 7:0.40079488 8:-0.28353801 9:-1.2469002 10:1.3835928 11:-1.4183909 12:0.16544125 
-2.101719399400637 1:-0.067590573 2:-1.1606742 3:-0.17860834 4:0.13449012 5:-0.19014951 6:0.18975523 7:0.22810475 8:-0.3403385 9:-0.46247846 10:0.43561867 11:-0.34985963 12:0.24240616 
-4.515677875611677 1:-0.05365013 2:-1.0039143 3:-0.21063288 4:-0.012381272 5:-0.1985967 6:0.13455248 7:0.068772361 8:-0.40749238 9:-0.29520234 10:0.26420724 11:-0.19184734 12:0.069423995 
-4.515677875611677 1:-0.0118288 2:-0.67818834 3:-0.28131295 4:-0.13433469 5:-0.20615932 6:0.11932881 7:-0.063300083 8:-0.48813466 9:-0.19097423 10:0.16786761 11:-0.11716962 12:-0.060589807 
-0.126503353481717 1:0.14151608 2:-0.62158417 3:0.23675336 4:-0.22222442 5:0.85422745 6:0.4071832 7:-0.60124626 8:-0.79359204 9:-1.1527898 10:1.0713225 11:-0.83909067 12:0.10401796 
-0.8394398442114571 1:-0.24184611 2:2.0173742 3:-0.036035649 4:-0.84221311 5:-0.081513684 6:-0.89314435 7:-0.8999295 8:-0.65819885 9:0.75552701 10:-0.72785503 11:0.60837294 12:-1.0264052 
-4.515677875611677 1:0.30183117 2:-1.4673293 3:0.017214344 4:-0.89360578 5:0.35517632 6:-0.48832741 7:-1.1383176 8:-0.90675109 9:0.38506336 10:-0.58537726 11:0.79724864 12:-0.94349332 
-4.515677875611677 1:-0.14426301 2:-0.61578223 3:-1.2184166 4:-1.3035859 5:-0.98607589 6:-0.08319811 7:-1.0357018 8:-0.76805083 9:0.52228093 10:-0.48236886 11:0.37333462 12:-0.52369509 
-4.515677875611677 1:0.057873416 2:-0.39186883 3:-1.2525127 4:-1.2530502 5:-1.0052576 6:0.32338756 7:-0.97170274 8:-0.79601675 9:0.018286327 10:0.116066 11:-0.28901961 12:0.51304739 
-4.515677875611677 1:0.2460694 2:-0.30922447 3:-1.2226101 4:-1.3067995 5:-1.0008465 6:0.2724641 7:-1.033129 8:-0.86348059 9:-0.26683391 10:0.36834188 11:-0.46770776 12:1.5897181 
-4.515677875611677 1:-0.018799022 2:-0.24826891 3:-1.2800328 4:-1.3853743 5:-1.0234386 6:-0.020293107 7:-1.1108625 8:-0.82986021 9:0.30368141 10:-0.29400916 11:0.24782886 12:-0.6919833 
-4.515677875611677 1:-0.018799022 2:-0.31155456 3:-1.274661 4:-1.3631948 5:-1.02787 6:-0.030645073 7:-1.0844304 8:-0.83504168 9:0.30770572 10:-0.29219598 11:0.23814072 12:-0.36031378 
-4.515677875611677 1:0.19727785 2:0.038918084 3:-1.1877532 4:-1.2579971 5:-0.97603006 6:-0.13515962 7:-0.98932917 8:-0.85535654 9:-0.26035258 10:0.23138141 11:-0.16548373 12:0.88689962 
-1.306188416900022 1:-0.032739465 2:1.7165918 3:0.27355432 4:-0.6757846 5:0.97942303 6:-0.33456888 7:-1.1561325 8:-0.86661702 9:0.54559912 10:-0.58975536 11:0.5850658 12:-1.1229315 
-4.515677875611677 1:2.9226345 2:-1.5897619 3:-1.3107366 4:-1.5078219 5:-1.1097912 6:-0.63256768 7:-1.2107524 8:-0.91709454 9:0.44217585 10:-0.40884845 11:0.31712654 12:1.1217739 
-4.515677875611677 1:0.19727785 2:-0.59883083 3:-0.68999533 4:-1.2921452 5:-0.35260297 6:-0.70800995 7:-1.2861708 8:-0.91536218 9:0.73902661 10:-0.76815053 11:0.72276091 12:0.72293034 
-4.515677875611677 1:-0.24184611 2:0.40117375 3:-0.61095043 4:-0.72680089 5:-0.470357 6:0.20171945 7:-0.61043686 8:-0.51296016 9:0.21133359 10:-0.21940327 11:0.20609452 12:-0.67115577 
-4.515677875611677 1:-0.039709687 2:0.15238631 3:-0.50527855 4:-0.63323263 5:-0.61818411 6:0.20073278 7:-0.44528498 8:-0.59350772 9:-0.38676097 10:0.35448076 11:-0.27027258 12:-0.54125934 
-4.515677875611677 1:-0.13032257 2:0.64083879 3:-0.56812806 4:-0.63683719 5:-0.58783676 6:0.18483597 7:-0.46188817 8:-0.54727248 9:-0.14737909 10:0.11047819 11:-0.047095145 12:-0.52578424 
-4.515677875611677 1:-0.13032257 2:1.5009642 3:-0.85269162 4:-0.63722927 5:-0.62919274 6:-0.1173699 7:-0.44514302 8:-0.5719586 9:-0.032067345 10:-0.034523958 11:0.12281396 12:-0.48153055 
-0.7132390311429981 1:-0.12335235 2:0.40682815 3:-0.75968553 4:-0.84372921 5:-0.65185341 6:-0.33381149 7:-0.66468324 8:-0.64490115 9:0.37447837 10:-0.44949888 11:0.50316143 12:-0.76818617 
-4.515677875611677 1:0.023022308 2:1.0522337 3:-0.61247059 4:-0.62486734 5:-0.96937482 6:0.18159267 7:-0.29012046 8:-0.57982407 9:-0.53270263 10:0.54298662 11:-0.49664577 12:-0.33118017 
-4.515677875611677 1:-0.09547146 2:1.08353 3:-0.74258183 4:-0.83898386 5:-0.75058646 6:0.074264314 7:-0.6184068 8:-0.6419325 9:0.042673827 10:-0.075363849 11:0.11218953 12:-0.59058855 
