svm_type nu_svc
kernel_type rbf
gamma 0.0833333
nr_class 2
total_sv 93
rho 9.58486
label 2 1
probA -3.00059
probB 0.423242
nr_sv 44 49
SV
13.87299592420075 1:-0.084265051 2:0.66835881 3:-1.042867 4:-1.0266428 5:-0.94665113 6:0.15389531 7:-0.64168164 8:-0.70126344 9:0.065663819 10:-0.067717471 11:0.062640922 12:-0.29148135 
13.87299592420075 1:-0.084265051 2:0.66842812 3:-1.0428781 4:-1.0265401 5:-0.94666402 6:0.15413483 7:-0.64156631 8:-0.70120486 9:0.064524726 10:-0.066777579 11:0.062072696 12:-0.29268695 
13.87299592420075 1:-0.27694065 2:-0.50991782 3:-0.8634603 4:-1.1034447 5:-0.75207043 6:-0.30038462 7:-0.81587239 8:-0.63602386 9:0.69723589 10:-0.75139328 11:0.73655713 12:-0.79270324 
13.87299592420075 1:-0.11994572 2:0.67258591 3:-1.0609519 4:-1.0815651 5:-0.96379272 6:0.18886342 7:-0.69193839 8:-0.6800888 9:0.27485825 10:-0.23972511 11:0.16566727 12:-0.18805684 
13.87299592420075 1:-0.34830198 2:0.074378076 3:-0.76066954 4:-0.82313946 5:-0.4918921 6:0.29958799 7:-0.64148813 8:-0.4993266 9:0.28486054 10:-0.30548161 11:0.29760239 12:-0.31806876 
13.87299592420075 1:-0.32689358 2:0.21637896 3:-0.77839145 4:-0.80591548 5:-0.5157629 6:0.13730648 7:-0.61182164 8:-0.47839202 9:0.3148821 10:-0.35088527 11:0.35812684 12:-0.43041118 
13.87299592420075 1:-0.27694065 2:-0.5095308 3:-0.86352138 4:-1.102854 5:-0.75229796 6:-0.29868755 7:-0.81513611 8:-0.63563537 9:0.69558083 10:-0.74975237 11:0.73512378 12:-0.79359569 
13.87299592420075 1:-0.11280958 2:0.67266174 3:-1.0609443 4:-1.0438265 5:-0.96379448 6:0.21093287 7:-0.65180462 8:-0.67172432 9:0.21273407 10:-0.1746848 11:0.1042546 12:-0.16542348 
3.173683455468984 1:-0.47675238 2:0.80286682 3:-0.63479721 4:-0.92018015 5:-0.38315756 6:-0.019422003 7:-0.79638505 8:-0.24904217 9:0.78306346 10:-0.80657716 11:0.74485827 12:-0.86658199 
13.87299592420075 1:-0.39111878 2:0.28813076 3:-0.7793828 4:-1.0366461 5:-0.63000902 6:-0.03571991 7:-0.80287149 8:-0.47337966 9:0.65615258 10:-0.69238038 11:0.66062003 12:-0.42468831 
7.055644211636696 1:-0.38398265 2:0.29710333 3:-0.78186977 4:-1.1341819 5:-0.74411216 6:-0.15843351 7:-0.85234375 8:-0.5337428 9:0.76114687 10:-0.7966187 11:0.75186276 12:-0.86741249 
13.87299592420075 1:-0.25553225 2:0.875887 3:-0.76715661 4:-0.92776117 5:-0.87019454 6:0.046916345 7:-0.57287866 8:-0.54941509 9:0.35165006 10:-0.38084351 11:0.37563031 12:0.016406984 
13.87299592420075 1:-0.34830198 2:0.51286788 3:-0.91892529 4:-1.1446909 5:-0.71664304 6:-0.11749767 7:-0.87658007 8:-0.60820995 9:0.67607838 10:-0.71229899 11:0.67823689 12:-0.65815227 
13.87299592420075 1:-0.41966331 2:0.30207959 3:-0.9492684 4:-1.2059127 5:-0.728052 6:-0.21232614 7:-0.93626163 8:-0.54388328 9:0.82060613 10:-0.8478476 11:0.78630999 12:-0.92547469 
13.87299592420075 1:-0.46961625 2:0.56829862 3:-0.85772981 4:-1.1812069 5:-0.60203655 6:-0.25734911 7:-0.96990407 8:-0.4748998 9:0.85425644 10:-0.89416986 11:0.84406266 12:-0.94720605 
13.87299592420075 1:-0.21271545 2:0.85584519 3:-0.88841864 4:-1.1278621 5:-0.82957197 6:-0.048708448 7:-0.80498986 8:-0.68877874 9:0.5153339 10:-0.54112215 11:0.51296015 12:-0.38724976 
13.87299592420075 1:-0.45534398 2:0.21200756 3:-0.85347102 4:-1.1511368 5:-0.58932272 6:-0.16475945 7:-0.94397114 8:-0.47253015 9:0.81307292 10:-0.83385898 11:0.76539265 12:-0.81996667 
13.87299592420075 1:-0.41252718 2:0.027320884 3:-0.77836765 4:-1.0923454 5:-0.49382688 6:-0.053434464 7:-0.9268543 8:-0.56329293 9:0.69462489 10:-0.69089836 11:0.60646114 12:-0.67986986 
13.87299592420075 1:-0.37684651 2:-0.32656384 3:-0.70402233 4:-1.0287168 5:-0.62722322 6:-0.20358727 7:-0.79576365 8:-0.53602007 9:0.67537756 10:-0.73041203 11:0.71915052 12:-0.7999158 
13.87299592420075 1:-0.33402971 2:0.2244227 3:-0.73914818 4:-1.0304267 5:-0.72134324 6:-0.26267499 7:-0.75283133 8:-0.56171407 9:0.62962014 10:-0.69002201 11:0.69050799 12:-0.71573804 
13.87299592420075 1:-0.44820785 2:0.090389131 3:-0.71146726 4:-1.040925 5:-0.47898113 6:-0.15031336 7:-0.87923015 8:-0.44913781 9:0.73878936 10:-0.77550737 11:0.73482921 12:-0.85518521 
13.87299592420075 1:-0.44820785 2:-0.72233544 3:-0.75295824 4:-1.0438384 5:-0.49089294 6:-0.022318542 7:-0.87666471 8:-0.46936631 9:0.72460048 10:-0.75970884 11:0.71871969 12:-0.92071806 
13.87299592420075 1:-0.048584384 2:0.3271151 3:-0.68618358 4:-0.8134972 5:-0.75701973 6:0.16637037 7:-0.50517556 8:-0.65479647 9:-0.26886944 10:0.2242513 11:-0.13942839 12:-0.50878999 
13.87299592420075 1:-0.29121291 2:-0.19401091 3:-0.76815449 4:-0.96754699 5:-0.72087404 6:-0.25435918 7:-0.68618528 8:-0.55152518 9:0.61999457 10:-0.67248529 11:0.66452538 12:-0.73661099 
13.87299592420075 1:-0.30548518 2:0.10131805 3:-0.84735895 4:-1.0195051 5:-0.75221348 6:-0.29504421 7:-0.72653915 8:-0.56402074 9:0.70080324 10:-0.74890484 11:0.72634511 12:-0.76936595 
13.87299592420075 1:-0.44107171 2:-0.26538957 3:-0.62767736 4:-0.98512509 5:-0.48501696 6:-0.15520569 7:-0.81702009 8:-0.43705853 9:0.76620782 10:-0.80587348 11:0.76559967 12:-0.88403162 
13.87299592420075 1:-0.36257425 2:-0.49854332 3:-0.68376202 4:-1.0341589 5:-0.72474819 6:-0.24520426 7:-0.75518143 8:-0.54200934 9:0.72985873 10:-0.78494337 11:0.76747281 12:-0.8390903 
13.87299592420075 1:-0.46248011 2:0.95334975 3:-0.80080049 4:-1.0832866 5:-0.61977767 6:-0.16846604 7:-0.8573358 8:-0.41022175 9:0.76570493 10:-0.81572974 11:0.78802365 12:-0.86668676 
6.678641006224545 1:-0.35543811 2:-0.16571844 3:-0.46456884 4:-0.8723192 5:-0.55035789 6:-0.18963394 7:-0.66598983 8:-0.48914865 9:0.60523987 10:-0.67111026 11:0.68100579 12:-0.71354747 
4.937182735109462 1:-0.12708185 2:1.0475303 3:-0.75160142 4:-0.98780884 5:-0.84129475 6:-0.41291311 7:-0.65047699 8:-0.69053523 9:0.4601102 10:-0.5713672 11:0.65277375 12:-0.63605996 
3.3767822016909 1:-0.14135412 2:1.6337127 3:-1.0302002 4:-0.81781109 5:-0.76697745 6:-0.12524456 7:-0.50502859 8:-0.63332319 9:0.066685193 10:-0.13782336 11:0.21605685 12:-0.44594286 
13.87299592420075 1:-0.13421798 2:0.57363635 3:-0.93810338 4:-1.0407031 5:-0.78747487 6:-0.3236635 7:-0.73231664 8:-0.70600899 9:0.45129402 10:-0.52407035 11:0.5600216 12:-0.74756423 
13.87299592420075 1:-0.42679945 2:0.62289735 3:-0.92598507 4:-1.0948143 5:-0.75198507 6:-0.12889921 7:-0.80673507 8:-0.40032021 9:0.77820005 10:-0.80524801 11:0.74835678 12:-0.82295218 
13.87299592420075 1:-0.39825491 2:0.98892216 3:-0.95556897 4:-1.0961896 5:-0.78303786 6:-0.064933424 7:-0.7934332 8:-0.45805721 9:0.69315732 10:-0.72202266 11:0.6771128 12:-0.82057654 
13.87299592420075 1:-0.44820785 2:1.0000765 3:-0.95201242 4:-1.0931594 5:-0.78740907 6:-0.090624964 7:-0.78813238 8:-0.34217521 9:0.79274155 10:-0.8201346 11:0.76198669 12:-0.87725878 
10.0544364168005 1:-0.42679945 2:1.7034996 3:-0.83005831 4:-0.97406515 5:-0.53573073 6:0.070918888 7:-0.78114591 8:-0.38562017 9:0.65002596 10:-0.6833511 11:0.64879049 12:-0.88345655 
8.646886246939843 1:-0.0057675847 2:1.3719173 3:-0.79477698 4:-0.87780774 5:-1.1071295 6:0.13191493 7:-0.40710187 8:-0.67393618 9:-0.34662068 10:0.30427251 11:-0.21324331 12:0.19621091 
12.33437753519888 1:-0.46248011 2:1.4264357 3:-0.68997834 4:-0.98805976 5:-0.52830475 6:-0.041609063 7:-0.79955921 8:-0.3153837 9:0.72936898 10:-0.76624408 11:0.72683972 12:-0.8603112 
5.907293179055663 1:-0.45534398 2:1.461771 3:-0.51703755 4:-0.82521473 5:-0.35194255 6:0.10094514 7:-0.71023599 8:-0.25171274 9:0.66851277 10:-0.70054426 11:0.66229397 12:-0.79070309 
13.87299592420075 1:-0.46961625 2:-0.91947762 3:-0.72602236 4:-1.2044239 5:-0.48400075 6:-0.4134928 7:-1.0507159 8:-0.60558055 9:0.8714135 10:-0.93491131 11:0.91131057 12:-1.0439973 
9.419731980750402 1:-0.46248011 2:-0.78152662 3:-0.72989704 4:-0.93510107 5:-0.42655248 6:0.052860667 7:-0.79161995 8:-0.33290667 9:0.70377285 10:-0.73934055 11:0.70130294 12:-0.88504375 
13.87299592420075 1:0.015640815 2:1.1989509 3:-0.79232766 4:-0.80446786 5:-1.0746848 6:0.14882401 7:-0.3445351 8:-0.64116098 9:-0.40693621 10:0.39970726 11:-0.3441475 12:-0.28774297 
13.87299592420075 1:-0.49102465 2:-0.26926088 3:-0.82087436 4:-1.0813632 5:-0.54436371 6:-0.12360992 7:-0.89114694 8:-0.3342321 9:0.83409013 10:-0.86391356 11:0.80394225 12:-1.0018568 
13.87299592420075 1:-0.38398265 2:1.6807141 3:-0.78265709 4:-0.98804826 5:-0.53453664 6:-0.010576298 7:-0.79658391 8:-0.49244547 9:0.62606025 10:-0.6571811 11:0.62271655 12:-0.77692646 
-13.87299592420075 1:-0.51956918 2:1.1060414 3:-1.3828202 4:-1.4269591 5:-1.0792773 6:1.4112031e-005 7:-1.0043378 8:-0.55801259 9:0.70903669 10:-0.76116652 11:0.74252385 12:-0.3779319 
-6.715102852235483 1:-0.48388851 2:-0.45679685 3:-0.20818096 4:-0.88299013 5:0.19800371 6:-0.053539421 7:-1.0331565 8:-0.53026911 9:0.82476734 10:-0.84354076 11:0.77129817 12:-0.47785088 
-13.87299592420075 1:-0.46248011 2:-1.223549 3:-0.74154327 4:-1.308382 5:-0.44590166 6:-0.35487469 7:-1.1793846 8:-0.73790661 9:0.89807568 10:-0.95093415 11:0.9114169 12:-1.1160801 
-13.87299592420075 1:-0.39111878 2:1.4652121 3:-0.38394311 4:-0.52449711 5:-0.15669458 6:0.078983876 7:-0.48327215 8:-0.1832708 9:0.64649736 10:-0.64513886 11:0.56909981 12:-0.62133506 
-13.87299592420075 1:-0.38398265 2:0.75857937 3:-0.51195274 4:-0.59440577 5:-0.41036312 6:0.24061923 7:-0.43700613 8:-0.18509939 9:0.56864487 10:-0.55519155 11:0.4735058 12:-0.55759091 
-13.87299592420075 1:-0.54811371 2:-0.34324933 3:-0.97400175 4:-1.2122899 5:-0.96597131 6:-0.49233069 7:-0.82992152 8:-0.082390468 9:0.93582373 10:-1.0090223 11:0.98972401 12:-1.0266088 
-13.87299592420075 1:-0.31262131 2:0.76106763 3:-0.76323559 4:-0.81805388 5:-0.62236658 6:0.15966417 7:-0.57404401 8:-0.48996068 9:0.3098345 10:-0.33592294 11:0.33177218 12:-0.54532118 
-13.87299592420075 1:-0.34116585 2:0.64137415 3:-0.75017305 4:-0.82396175 5:-0.60513529 6:0.11880179 7:-0.58851957 8:-0.45817361 9:0.36154826 10:-0.39297099 11:0.38931081 12:-0.50612413 
-13.87299592420075 1:-0.34116585 2:0.18467557 3:-0.6943942 4:-0.76378763 5:-0.49493196 6:0.23909493 7:-0.57692528 8:-0.44369913 9:0.31379 10:-0.35417986 11:0.36684457 12:-0.47072665 
-13.87299592420075 1:-0.43393558 2:-0.012855155 3:-0.66422315 4:-0.87025915 5:-0.48990605 6:0.14385068 7:-0.6925417 8:-0.327825 9:0.59366607 10:-0.63095618 11:0.6076696 12:-0.64813009 
-13.87299592420075 1:-0.34830198 2:0.074378076 3:-0.76066954 4:-0.82313946 5:-0.4918921 6:0.29958799 7:-0.64148813 8:-0.4993266 9:0.28486054 10:-0.30548161 11:0.29760239 12:-0.31806876 
-13.87299592420075 1:-0.30548518 2:0.68276855 3:-0.80311617 4:-0.87258764 5:-0.71241789 6:0.10126324 7:-0.58922163 8:-0.51620625 9:0.33490015 10:-0.37261304 11:0.37961564 12:-0.28326432 
-13.87299592420075 1:-0.32689358 2:0.21637896 3:-0.77839145 4:-0.80591548 5:-0.5157629 6:0.13730648 7:-0.61182164 8:-0.47839202 9:0.3148821 10:-0.35088527 11:0.35812684 12:-0.43041118 
-13.87299592420075 1:-0.26266838 2:0.55852264 3:-0.77250463 4:-0.8635301 5:-0.75635641 6:0.070699286 7:-0.55869824 8:-0.5433595 9:0.2716304 10:-0.31544942 11:0.3371069 12:-0.42964836 
-3.58366129898159 1:-0.40539105 2:-0.51250975 3:-0.57274127 4:-1.3034115 5:-0.37347851 6:-0.45996605 7:-1.2085332 8:-0.80012202 9:0.94635137 10:-1.0047016 11:0.96626066 12:-1.3071909 
-13.87299592420075 1:-0.40539105 2:1.5078153 3:-0.68026917 4:-0.96797822 5:-0.53060946 6:-0.55727903 7:-0.77710773 8:-0.44378732 9:0.963426 10:-1.0061035 11:0.94677104 12:-0.84456921 
-9.353562907657761 1:-0.52670531 2:0.056182168 3:-1.2382576 4:-1.5259735 5:-0.97430266 6:0.15153674 7:-1.159546 8:-0.72709398 9:0.80088226 10:-0.82483653 11:0.76159907 12:-0.27798768 
-1.759068573424374 1:-0.12708185 2:-0.32744528 3:-0.43771783 4:-0.32317353 5:-0.39619597 6:-0.2107316 7:-0.15530104 8:-0.48662784 9:0.32635598 10:-0.37877007 11:0.40450931 12:-0.32013315 
-13.87299592420075 1:-0.14849025 2:-0.10562483 3:-0.50190332 4:-0.64266318 5:-0.34860742 6:0.1565639 7:-0.51768788 8:-0.58207493 9:0.1469335 10:-0.18739919 11:0.21935719 12:-0.43851656 
-3.805436634954965 1:0.015640815 2:0.00050294872 3:-0.73157678 4:-0.81219247 5:-0.39142646 6:0.23976639 7:-0.67761438 8:-0.74234837 9:-0.26419575 10:0.28774855 11:-0.28578781 12:-0.65760396 
-1.474492761888804 1:0.44380881 2:1.2538186 3:-1.0288076 4:-1.3117224 5:-0.74046308 6:-0.30198562 7:-1.0428835 8:-0.92129202 9:0.20529241 10:-0.27449948 11:0.33445008 12:-0.95550453 
-13.87299592420075 1:-0.53384145 2:0.38724908 3:-0.91094283 4:-1.2068325 5:-0.63236714 6:-0.22543201 7:-0.98273446 8:-0.25908923 9:0.873642 10:-0.89085697 11:0.81110786 12:-0.88997741 
-13.87299592420075 1:-0.23412385 2:1.0181089 3:-1.1907505 4:-1.1923023 5:-0.89484679 6:0.37801736 7:-0.8424828 8:-0.69136587 9:0.10565235 10:-0.012836987 11:-0.11140672 12:-0.60387702 
-13.87299592420075 1:-0.26980452 2:-0.20455763 3:-1.2506066 4:-1.4622846 5:-0.89883272 6:-0.0087661969 7:-1.1276995 8:-0.78975688 9:0.64639554 10:-0.62542882 11:0.52572229 12:-0.94068634 
-13.87299592420075 1:-0.25553225 2:1.0452226 3:-1.2642841 4:-1.2462294 5:-0.98069414 6:0.26128845 7:-0.85901416 8:-0.67163035 9:0.25545302 10:-0.20062339 11:0.10501289 12:-0.74120511 
-13.87299592420075 1:-0.20557932 2:0.59184689 3:-1.2643638 4:-1.3029492 5:-0.96371767 6:0.085834056 7:-0.92740434 8:-0.70567016 9:0.4156433 10:-0.33938237 11:0.19945649 12:-0.57545579 
-12.00271170974754 1:-0.16989865 2:0.53466851 3:-1.2580354 4:-1.2510136 5:-0.96883259 6:0.21509266 7:-0.86974156 8:-0.68001726 9:0.32608981 10:-0.22093238 11:0.056416405 12:-0.56567488 
-13.87299592420075 1:-0.22698772 2:0.12701013 3:-1.1754293 4:-1.3864415 5:-0.89944276 6:-0.13534571 7:-1.0467544 8:-0.77084287 9:0.64867423 10:-0.66738897 11:0.61534018 12:-0.59650654 
-13.87299592420075 1:-0.16989865 2:0.56461951 3:-1.2583715 4:-1.1550628 5:-0.98379729 6:0.27612557 7:-0.76058788 8:-0.65217145 9:0.17521095 10:-0.079565116 11:-0.056101474 12:-0.75188611 
-13.87299592420075 1:-0.034312118 2:0.49215833 3:-1.0793919 4:-1.2737695 5:-0.84649509 6:-0.088722016 7:-0.95210837 8:-0.81695889 9:0.3360575 10:-0.33555663 11:0.2962785 12:0.19397522 
-4.215289558966471 1:-0.19844318 2:0.21413571 3:-1.2534877 4:-1.252914 5:-0.97506556 6:-0.079550138 7:-0.86879897 8:-0.72962021 9:0.32090362 10:-0.260809 11:0.15130841 12:-0.47641854 
-13.87299592420075 1:-0.26266838 2:0.78259439 3:-1.0929056 4:-1.0857749 5:-0.94646172 6:-0.35393062 7:-0.70465556 8:-0.50008987 9:0.52716312 10:-0.63833464 11:0.71192153 12:-0.66284848 
-13.87299592420075 1:-0.21271545 2:1.1249579 3:-1.3416484 4:-1.3213999 5:-1.101327 6:0.1455316 7:-0.88159742 8:-0.724535 9:0.33662432 10:-0.30432572 11:0.2265829 12:-0.68970278 
-6.954900238497126 1:-0.43393558 2:0.1848351 3:-0.63617445 4:-1.298281 5:-0.37076706 6:-0.47817471 7:-1.2043664 8:-0.77073949 9:0.95544762 10:-1.0104923 11:0.96701285 12:-1.2748007 
-13.87299592420075 1:-0.42679945 2:0.054228191 3:-0.63088961 4:-1.3072984 5:-0.36978118 6:-0.4643231 7:-1.2144246 8:-0.77407275 9:0.9409667 10:-0.99203052 11:0.94541015 12:-1.3049491 
-13.87299592420075 1:-0.44820785 2:0.57403505 3:-0.64377197 4:-1.081643 5:-0.49874994 6:-0.66036895 7:-0.91313225 8:-0.4381901 9:0.89392873 10:-0.97665574 11:0.97368548 12:-0.98787635 
-13.87299592420075 1:-0.36971038 2:0.63777705 3:-0.5592435 4:-1.0251336 5:-0.51707412 6:-0.68702905 7:-0.844325 8:-0.5401432 9:0.89586788 10:-0.92592615 11:0.85912908 12:-0.91959276 
-6.630534017027435 1:-0.51956918 2:0.85400682 3:-0.56477576 4:-1.2169264 5:-0.28473446 6:-0.47556936 7:-1.1587554 8:-0.64829616 9:0.95333668 10:-1.0056815 11:0.9591845 12:-1.2650707 
-1.429713862861651 1:-0.24125998 2:-0.088471665 3:-0.31522888 4:-0.97897187 5:-0.47274609 6:-0.67521226 7:-0.81631082 8:-0.67883603 9:0.85486009 10:-0.86750774 11:0.78440449 12:-0.82359493 
-13.87299592420075 1:-0.34830198 2:-0.21886378 3:-0.23873542 4:-0.76493998 5:-0.16259384 6:-0.17942595 7:-0.73616544 8:-0.51264778 9:0.83813536 10:-0.85770256 11:0.78488015 12:-0.6871631 
-2.716342124702551 1:-0.37684651 2:-1.461873 3:-0.75075439 4:-1.2645303 5:-0.37462234 6:-0.15730725 7:-1.1666413 8:-0.79227211 9:0.8123248 10:-0.86715488 11:0.83988675 12:-0.50040548 
-13.87299592420075 1:0.022776948 2:0.39250496 3:-0.93752161 4:-1.3292012 5:-0.72930032 6:-0.29925566 7:-1.0667788 8:-0.86555288 9:0.55970283 10:-0.61433776 11:0.61590553 12:-0.93929108 
-4.208674284676923 1:-0.36257425 2:-0.17865033 3:-0.79954987 4:-0.88766581 5:-0.96832396 6:-0.66922945 7:-0.48358241 8:-0.34324331 9:0.93653799 10:-0.96389295 11:0.88915103 12:-0.68023388 
-13.61712663221949 1:-0.46248011 2:-0.41463696 3:-0.67670777 4:-1.198185 5:-0.86708328 6:-0.66564101 7:-0.86193933 8:-0.45750167 9:0.9445923 10:-0.96532808 11:0.88166589 12:-0.99163615 
-13.87299592420075 1:-0.34830198 2:-0.57662972 3:-0.5139475 4:-0.71185589 5:-0.87694086 6:-0.49607011 7:-0.34006728 8:-0.3089438 9:0.87758534 10:-0.85612375 11:0.72921445 12:-0.54873418 
-2.593623574683754 1:-0.25553225 2:0.07354877 3:-0.79311198 4:-0.32055363 5:-0.86757997 6:0.12706997 7:0.071611033 8:-0.17712458 9:0.52060942 10:-0.51545315 11:0.44931497 12:-0.1180266 
-4.397413860550716 1:-0.49102465 2:-0.79153179 3:-0.958979 4:-1.0773973 5:-0.78335433 6:-0.647818 7:-0.7732981 8:-0.23453996 9:0.91949028 10:-0.98321881 11:0.95436405 12:-0.98087448 
-13.87299592420075 1:-0.31975745 2:0.41791607 3:-0.66467897 4:-0.37890065 5:-0.85035339 6:-0.092653052 7:0.0013714757 8:-0.10840407 9:0.62093634 10:-0.65177074 11:0.6175499 12:-0.24159489 
-13.87299592420075 1:-0.44107171 2:0.46581788 3:-0.44954213 4:-0.98197077 5:-0.85038566 6:-0.61135627 7:-0.63994609 8:-0.31641733 9:0.95648072 10:-0.95652052 11:0.84649737 12:-0.88935109 
