svm_type nu_svc
kernel_type rbf
gamma 0.0833333
nr_class 2
total_sv 95
rho 1.338
label 2 1
probA -3.80018
probB 0.818663
nr_sv 49 46
SV
1.588032966579206 1:0.029712563 2:-0.75798641 3:-0.014759226 4:0.3292095 5:0.58622688 6:1.4704948 7:0.080329678 8:-0.66228475 9:-2.8359586 10:2.9736086 11:-2.7885298 12:-0.072327331 
0.761308739547237 1:-0.055418124 2:-0.2874761 3:0.025335683 4:0.48728249 5:0.57675055 6:1.7298061 7:0.24694218 8:-0.52382363 9:-2.7523039 10:2.9027649 11:-2.7445016 12:-0.025227146 
0.352868624894503 1:-0.022675552 2:0.60666341 3:0.62528658 4:0.30076936 5:1.3589996 6:0.98598718 7:-0.28896897 8:-0.78191505 9:-2.1608912 10:2.1322708 11:-1.8222564 12:-0.47848555 
0.4353714408889345 1:-0.23877653 2:-0.0060213271 3:0.39225108 4:-0.94616912 5:1.1129807 6:-0.5298632 7:-1.4621092 8:-1.0423625 9:0.84609151 10:-0.93351467 11:0.93697561 12:-1.0737997 
7.533908915007167 1:-0.10125773 2:-0.90891774 3:0.64873375 4:0.32073496 5:1.4768184 6:1.1210518 7:-0.32029979 8:-0.70841681 9:-1.7474973 10:1.7822278 11:-1.6047811 12:-0.41661282 
7.533908915007167 1:-0.41558642 2:-1.0541893 3:0.5789332 4:0.01280523 5:1.3533861 6:0.95657858 7:-0.58242245 8:-0.25471618 9:0.10338472 10:-0.075948374 11:0.028120177 12:-0.58282892 
7.533908915007167 1:-0.42868345 2:-1.0880215 3:0.62011209 4:0.075273682 5:1.3808408 6:0.91564964 7:-0.53030921 8:-0.16501614 9:0.16077277 10:-0.13888577 11:0.09081089 12:-0.3386936 
7.533908915007167 1:-0.41558642 2:-0.59720016 3:0.57222098 4:0.13650799 5:1.3493808 6:1.1336269 7:-0.45353778 8:-0.13173924 9:-0.0064472526 10:0.046664525 11:-0.096755163 12:-0.37153687 
3.138331240465118 1:-0.3631983 2:-0.67594537 3:0.56117763 4:0.27065837 5:1.361039 6:1.4807668 7:-0.32080975 8:-0.18051796 9:-0.3653215 10:0.45737837 11:-0.52761863 12:-0.45584183 
7.533908915007167 1:-0.35664979 2:-1.2193286 3:0.52219586 4:-0.088352877 5:1.3200464 6:1.0179448 7:-0.67170493 8:-0.53483716 9:-0.16124369 10:0.21922963 11:-0.27219927 12:0.31775279 
2.322261708322579 1:-0.3631983 2:0.16172196 3:0.57189023 4:0.71626115 5:1.3441151 6:2.1743379 7:0.14455763 8:0.24254333 9:-0.51990653 10:0.73084649 11:-0.93198448 12:-0.38776058 
2.410668152972436 1:-0.088160696 2:1.5242506 3:0.17064866 4:0.6051417 5:0.83139507 6:1.9167882 7:0.2559983 8:-0.47005438 9:-2.7756633 10:2.898741 11:-2.7028557 12:-0.02468168 
3.175754465260398 1:0.12139176 2:-3.1305357 3:0.043998669 4:-1.1527983 5:0.71320882 6:-0.65044267 7:-1.4985231 8:-1.063296 9:0.93370637 10:-0.95153789 11:0.85580801 12:-1.2813015 
0.4737551303873974 1:-0.36974682 2:-0.094101072 3:0.57713671 4:-0.66881727 5:1.245879 6:-0.29960614 7:-1.2355753 8:-0.86912309 9:0.71776655 10:-0.77183371 11:0.74933105 12:-1.210175 
7.533908915007167 1:-0.40248939 2:0.46905924 3:0.78180657 4:0.93976852 5:1.5234245 6:2.263247 7:0.29533477 8:0.44213844 9:-0.48077652 10:0.64337747 11:-0.78828509 12:-0.10854358 
6.564356420549242 1:-0.38284384 2:0.18056786 3:0.73332784 4:1.1244823 5:1.5075138 6:2.5644689 7:0.49215602 8:0.479412 9:-0.76176438 10:0.96880413 11:-1.1343616 12:0.20879323 
4.27495182359057 1:-0.16019435 2:0.078698672 3:0.031327355 4:0.016014914 5:0.70700638 6:1.5676566 7:-0.29467315 8:-0.65031937 9:-1.5321249 10:1.646374 11:-1.5968705 12:1.1483653 
0.7635321696625564 1:-0.33045573 2:-1.1140745 3:0.087568684 4:0.069976761 5:0.72927356 6:1.3461778 7:-0.2490188 8:-0.29033387 9:-0.47246373 10:0.57416075 11:-0.64302865 12:0.069154453 
1.733029425833192 1:-0.32390721 2:-0.46327343 3:0.64023601 4:0.60174455 5:1.4552062 6:2.0237734 7:-0.022011918 8:-0.1145584 9:-0.96745571 10:1.1160657 11:-1.1816008 12:0.08298969 
1.373046733186733 1:-0.0030300093 2:0.12486672 3:0.62838946 4:0.71963811 5:1.3606215 6:1.6600004 7:0.140764 8:-0.65497938 9:-3.2405203 10:3.3030848 11:-2.9717035 12:-0.073653369 
7.533908915007167 1:0.0035185051 2:-0.42665439 3:-0.082386004 4:-1.0818243 5:0.42741373 6:-0.49369799 7:-1.2998182 8:-1.0365525 9:0.51639075 10:-0.54648836 11:0.51915922 12:-1.017977 
3.710004457203893 1:-0.25187356 2:-1.9342594 3:0.7046113 4:0.38155805 5:1.3959425 6:1.1336233 7:-0.22220458 8:-0.45916927 9:-0.89116861 10:0.93238586 11:-0.87164748 12:-0.34782047 
3.401715619348207 1:-0.23877653 2:1.2162803 3:-0.099768259 4:0.08052482 5:0.4398114 6:1.4218655 7:-0.11079621 8:-0.47505618 9:-1.3500887 10:1.3986865 11:-1.2891451 12:-0.00058322757 
7.533908915007167 1:-0.4090379 2:-0.68254537 3:0.067697871 4:-0.14831103 5:0.55895776 6:0.85696995 7:-0.39838981 8:-0.19315637 9:0.11262657 10:-0.094297118 11:0.056825597 12:-0.52688951 
7.533908915007167 1:-0.38939236 2:-0.22070928 3:0.11008624 4:0.20564147 5:0.586027 6:1.4704986 7:-0.046565972 8:0.041135114 9:-0.30395351 10:0.37687069 11:-0.43065905 12:-0.11831966 
7.533908915007167 1:-0.41558642 2:0.34325755 3:0.17126424 4:0.53691007 5:0.66864604 6:1.9493214 7:0.25750128 8:0.48532558 9:-0.32149267 10:0.43068105 11:-0.52815975 12:0.1158383 
7.533908915007167 1:-0.28461613 2:-0.73733517 3:0.64981842 4:0.89764529 5:1.4717176 6:2.1849862 7:0.27480172 8:-0.019079283 9:-1.0160619 10:1.2900892 11:-1.5082208 12:-0.22950027 
3.995797030355945 1:-0.31081019 2:0.13851108 3:0.68178587 4:0.94483989 5:1.47872 6:2.1868983 7:0.32021926 8:0.1311188 9:-0.74751894 10:1.0250234 11:-1.2815809 12:-0.29682454 
0.01174674398160292 1:-0.12090327 2:0.016840272 3:0.62598413 4:0.94644525 5:1.3568682 6:2.5648717 7:0.37549205 8:-0.35598986 9:-2.9532378 10:3.2189698 11:-3.1811595 12:-0.11840427 
2.148773245814045 1:-0.1340003 2:-2.7699023 3:0.75303213 4:0.53540871 5:1.5209401 6:1.2497787 7:-0.11910872 8:-0.63695809 9:-1.9824879 10:1.9792582 11:-1.7239873 12:-0.057535637 
0.7208967024252223 1:-0.12090327 2:0.022817084 3:0.72491218 4:1.0158921 5:1.5247464 6:2.3134147 7:0.37298071 8:-0.4378787 9:-3.4602445 10:3.5138857 11:-3.1433699 12:0.30767793 
7.533908915007167 1:-0.26497059 2:-1.2745587 3:0.80480998 4:0.71086094 5:1.5223391 6:1.7836145 7:0.060577521 8:-0.30025845 9:-1.4252888 10:1.5131474 11:-1.4437749 12:-0.12279337 
7.533908915007167 1:-0.2715191 2:-1.1439823 3:0.7757453 4:0.60714865 5:1.5270666 6:1.6609496 7:-0.048081886 8:-0.3383214 9:-1.2740992 10:1.3501331 11:-1.2849484 12:-0.15584325 
7.07472083587284 1:0.11484325 2:-0.078158951 3:-0.065465191 4:0.01567861 5:0.56658076 6:0.78782849 7:-0.23322195 8:-0.83451455 9:-2.5432729 10:2.4502007 11:-2.0101543 12:-0.098808022 
7.533908915007167 1:0.062455135 2:-0.63568946 3:-0.062179934 4:-1.2435058 5:0.54115624 6:-0.65964402 7:-1.5160231 8:-1.072809 9:0.95379453 10:-1.0012448 11:0.94046161 12:-1.406064 
7.533908915007167 1:0.016615534 2:-1.9061474 3:-0.071111223 4:-1.2348528 5:0.55305727 6:-0.6753687 7:-1.5123682 8:-1.0683721 9:0.8646421 10:-0.92973136 11:0.90257142 12:-0.98780225 
7.533908915007167 1:-0.3631983 2:-0.60068124 3:0.62938063 4:0.36426059 5:1.3820165 6:1.4726798 7:-0.23385176 8:-0.2248491 9:-0.56453577 10:0.62824547 11:-0.63736295 12:-0.22729303 
7.533908915007167 1:-0.46797453 2:1.6481762 3:0.7534861 4:0.95519202 5:1.512582 6:1.4087357 7:0.31595598 8:1.1859572 9:0.28645172 10:-0.18689758 11:0.024587055 12:-0.063265476 
3.880103863500614 1:-0.42213493 2:1.0732653 3:0.72587933 4:0.88317533 5:1.3795961 6:2.3359462 7:0.3004715 8:0.63804291 9:-0.42800324 10:0.5557409 11:-0.66320453 12:0.57187124 
4.984268201614804 1:-0.035772581 2:-0.3013628 3:0.62223367 4:0.20153991 5:1.4660086 6:0.83113431 7:-0.4380324 8:-0.81799734 9:-2.0489825 10:1.9635766 11:-1.5958613 12:-0.50651492 
7.533908915007167 1:-0.37629533 2:-0.10954058 3:0.75257582 4:0.89624847 5:1.5022439 6:2.5036403 7:0.25993265 8:0.27865896 9:-0.82808364 10:1.0067932 11:-1.1280873 12:0.079054767 
4.742550901958254 1:-0.14709733 2:-0.082289838 3:-0.073419175 4:-0.88474946 5:0.41400104 6:-0.15241333 7:-1.0913934 8:-0.93756146 9:0.2428285 10:-0.297571 11:0.33609823 12:-0.75540536 
1.119823399953862 1:-0.075063668 2:0.13543401 3:-0.12132814 4:-0.087141092 5:0.52942326 6:0.78299777 7:-0.32253186 8:-0.75354832 9:-1.7834666 10:1.7354076 11:-1.4486075 12:0.037172796 
5.477314494326966 1:0.23271651 2:-1.2594945 3:-0.21657834 4:-1.2562533 5:0.15837629 6:-0.54045042 7:-1.3606739 8:-1.0696286 9:0.44081962 10:-0.65141705 11:0.86214178 12:-0.99615255 
1.071422330872021 1:0.14758582 2:-1.4523059 3:-0.2665042 4:-1.3160142 5:0.40785947 6:-0.59466312 7:-1.5318761 8:-1.0692903 9:0.85286027 10:-0.94489687 11:0.95334 12:-1.5782192 
0.09256239504245034 1:-0.31081019 2:0.60062892 3:0.0070066419 4:0.60234281 5:0.66586087 6:2.3051247 7:0.32596832 8:-0.02188841 9:-1.4638574 10:1.6278849 11:-1.6500412 12:1.0994822 
7.533908915007167 1:-0.39594087 2:-1.2127166 3:-0.085138455 4:-0.7813108 5:0.43467287 6:0.092306815 7:-0.99419262 8:-0.68828466 9:0.51710016 10:-0.54337819 11:0.51112429 12:-0.87792987 
3.930709396494292 1:-0.25187356 2:0.27727491 3:0.083948626 4:0.17598332 5:0.6880556 6:1.419925 7:-0.12194341 8:-0.44288874 9:-1.2035912 10:1.2635472 11:-1.1869444 12:0.65653999 
2.811321778044601 1:-0.081612182 2:1.8097285 3:0.058431552 4:-1.0080451 5:0.7807448 6:-0.38656651 7:-1.3794892 8:-1.028466 9:0.59960304 10:-0.65578714 11:0.65093553 12:-1.2160242 
-7.533908915007167 1:-0.40248939 2:-1.638211 3:-0.16549513 4:-1.2391393 5:0.17834766 6:-0.71389256 7:-1.3518756 8:-0.92636202 9:0.94352917 10:-0.9940658 11:0.93848991 12:-1.493485 
-7.533908915007167 1:-0.3631983 2:-1.3671612 3:-0.1569566 4:-1.2020055 5:0.14289506 6:-0.70477347 7:-1.2981137 8:-0.91513089 9:0.95358582 10:-0.9842296 11:0.90219887 12:-1.4087263 
-7.533908915007167 1:-0.16019435 2:-1.3883717 3:-0.18804258 4:-1.2374501 5:0.16990009 6:-0.37971501 7:-1.3464221 8:-1.0102719 9:0.68422858 10:-0.56775237 11:0.33362306 12:0.013257353 
-0.3787406769938937 1:-0.16674287 2:-1.6020952 3:-0.18327796 4:-1.2403771 5:0.069165445 6:-0.7875915 7:-1.3051 8:-0.97200559 9:0.89010526 10:-0.89837388 11:0.79606343 12:-0.56798601 
-1.881347558367638 1:-0.52691116 2:-0.54272065 3:-0.020653065 4:-1.1168413 5:0.53881522 6:-0.056590652 7:-1.3848272 8:-1.2146867 9:0.90634589 10:-0.97095536 11:0.93790414 12:0.28328604 
-4.465421405074724 1:-0.50726562 2:0.95111402 3:0.050865421 4:-0.55894609 5:0.67195231 6:0.23574423 7:-0.87010051 8:-0.14606034 9:0.70115224 10:-0.67744687 11:0.55860383 12:-0.19953261 
-7.533908915007167 1:-0.44832899 2:-0.9378119 3:0.054307668 4:-0.48993901 5:0.55680845 6:0.93041476 7:-0.74851492 8:-0.34877016 9:0.3834417 10:-0.26677187 11:0.070507374 12:0.14010908 
-7.533908915007167 1:-0.38284384 2:0.068201444 3:0.21634397 4:0.59672437 5:0.57449232 6:1.9448382 7:0.36040297 8:0.37016099 9:-0.37022994 10:0.75380711 11:-1.1924356 12:0.91685626 
-0.4230562141767256 1:-0.35010127 2:0.4679853 3:0.025053193 4:0.24047547 5:0.54205056 6:2.2149909 7:0.0085834883 8:-0.0042654061 9:-0.55260978 10:0.84937365 11:-1.1550051 12:2.3477963 
-7.533908915007167 1:-0.17329138 2:-0.49334156 3:-0.19518332 4:-1.2516894 5:-0.029179576 6:-0.9252592 7:-1.2734465 8:-0.96434079 9:0.84774461 10:-0.76570379 11:0.55444566 12:-1.3199584 
-2.174498819647695 1:-0.2715191 2:-1.8955409 3:-0.1916927 4:-1.2508275 5:-0.01144447 6:-0.92712426 7:-1.2803654 8:-0.93587584 9:0.88011876 10:-0.83567166 11:0.66789829 12:-1.3712397 
-2.68711798568634 1:-0.37629533 2:-0.21951871 3:0.38064618 4:0.8835785 5:0.55772461 6:1.7654619 7:0.66256495 8:0.54435251 9:-0.16894431 10:0.336509 11:-0.52720913 12:0.053836885 
-6.884006620682526 1:-0.40248939 2:-0.71490006 3:0.33579657 4:0.4827044 5:0.5784013 6:1.3219317 7:0.24151111 8:0.38795758 9:0.13329658 10:-0.044837004 11:-0.084025027 12:-0.2425438 
-2.559649554353391 1:-0.44178047 2:-0.85335765 3:0.32740128 4:0.090314763 5:0.5690992 6:0.62119879 7:-0.15763106 8:0.19834733 9:0.4790707 10:-0.46733806 11:0.39178812 12:-0.45341595 
-0.6769494363125909 1:-0.40248939 2:0.76294887 3:0.71313335 4:1.1392431 5:1.0642342 6:1.1768395 7:0.70239784 8:0.92793825 9:0.21423409 10:-0.087103017 11:-0.1009647 12:-0.15142209 
-2.949380007261642 1:-0.26497059 2:1.2989314 3:0.19707407 4:0.36375799 5:0.42260883 6:0.60057405 7:0.18783616 8:-0.12821357 9:0.0020044024 10:0.08056538 11:-0.18533722 12:0.25111692 
-4.930017706451922 1:0.016615534 2:0.55270269 3:-0.396971 4:0.26580621 5:-0.27472701 6:1.0542026 7:0.39405189 8:-0.52228922 9:-2.0238196 10:2.1339856 11:-2.0170158 12:0.50965787 
-6.265940171481189 1:-0.04886961 2:0.20356107 3:-0.33284957 4:0.36195168 5:-0.14168193 6:0.9946779 7:0.43430605 8:-0.40850805 9:-1.5192393 10:1.6418933 11:-1.6046616 12:0.34148122 
-2.636241325401653 1:-0.23877653 2:1.0411892 3:-0.25538504 4:0.72425999 5:-0.26923704 6:1.9700516 7:0.86276188 8:0.22471333 9:-0.76118918 10:0.95016445 11:-1.0929285 12:0.22864061 
-7.533908915007167 1:-0.029224067 2:-0.023089848 3:-0.82630588 4:-0.95817959 5:-0.40909448 6:0.22929964 7:-0.80463546 8:-0.83847084 9:-0.31769342 10:0.35481928 11:-0.36156168 12:-0.67658089 
-7.533908915007167 1:-0.2715191 2:-1.3833872 3:0.64452921 4:-0.43471125 5:1.4882235 6:0.20267366 7:-1.1016463 8:-0.87867655 9:0.16758955 10:-0.18894434 11:0.19474179 12:-0.9504118 
-7.533908915007167 1:-0.20603396 2:-0.89710642 3:0.70705388 4:0.10037501 5:1.5236372 6:0.94369088 7:-0.56735421 8:-0.67842325 9:-0.95763868 10:0.98565438 11:-0.89978348 12:-0.54798278 
-7.533908915007167 1:-0.1798399 2:-1.7090426 3:0.63083877 4:0.25145142 5:1.4658117 6:1.3613102 7:-0.38665466 8:-0.63058435 9:-1.4392685 10:1.5075987 11:-1.4117357 12:-0.13083599 
-7.533908915007167 1:-0.20603396 2:-1.2303962 3:0.73791904 4:0.31183537 5:1.5951399 6:1.2151251 7:-0.38151483 8:-0.62315623 9:-1.3188175 10:1.334982 11:-1.1883481 12:-0.37011911 
-7.533908915007167 1:-0.14709733 2:-0.64870313 3:0.59986916 4:0.25084206 5:1.387437 6:1.2593006 7:-0.35279067 8:-0.66296165 9:-1.6893802 10:1.7571288 11:-1.6288403 12:-0.39126581 
-7.533908915007167 1:-0.081612182 2:-0.069156094 3:0.59885273 4:0.42986595 5:1.3930531 6:1.4044436 7:-0.17128984 8:-0.67726131 9:-2.440209 10:2.5019094 11:-2.2708342 12:-0.071191872 
-7.533908915007167 1:-0.16674287 2:-0.26799758 3:0.61231384 4:0.54365808 5:1.3944823 6:1.7722443 7:-0.054981301 8:-0.5250658 9:-2.0769752 10:2.1740333 11:-2.0337365 12:-0.30982266 
-7.533908915007167 1:-0.28461613 2:-0.22447649 3:0.6650642 4:0.61030068 5:1.485892 6:1.9663626 7:-0.026723168 8:-0.18150689 9:-1.0769901 10:1.2416349 11:-1.313589 12:-0.37248531 
-7.533908915007167 1:-0.35664979 2:-0.23436845 3:0.73128167 4:0.60799254 5:1.5282559 6:1.9421567 7:-0.047738057 8:0.038226542 9:-0.55621662 10:0.68991439 11:-0.78867768 12:-0.30714119 
-7.533908915007167 1:-0.34355276 2:-0.1088528 3:0.78279317 4:0.73449045 5:1.6092834 6:2.2160363 7:0.046598829 8:0.063627055 9:-0.79490202 10:0.9721815 11:-1.0958695 12:-0.21982126 
-7.533908915007167 1:-0.38284384 2:-0.89320398 3:0.85349328 4:0.71704109 5:1.6403628 6:2.1097812 7:0.014990088 8:0.18603923 9:-0.49556982 10:0.64533058 11:-0.77211062 12:-0.17628953 
-7.533908915007167 1:-0.37629533 2:-0.40440041 3:0.79452306 4:0.72253973 5:1.50508 6:2.2023359 7:0.080174315 8:0.20676195 9:-0.56419067 10:0.72591085 11:-0.85913492 12:-0.15416366 
-7.533908915007167 1:-0.42868345 2:-1.5737004 3:0.83892241 4:0.49050277 5:1.578964 6:1.5542189 7:-0.19079034 8:0.14414868 9:-0.1311442 10:0.18550826 11:-0.23770694 12:-0.093783058 
-0.2787051978595379 1:-0.44178047 2:-1.4028119 3:0.79834791 4:0.47829134 5:1.5354798 6:1.5911216 7:-0.18420336 8:0.30000882 9:0.032656795 10:0.038749812 11:-0.13327484 12:-0.045537172 
-7.533908915007167 1:-0.41558642 2:-0.097359774 3:0.8603533 4:0.58857364 5:1.6458838 6:1.7808293 7:-0.11945798 8:0.19007826 9:-0.25323143 10:0.33651607 11:-0.40985421 12:0.27811814 
-6.539306381972322 1:-0.42213493 2:0.28349768 3:0.79253548 4:0.83038017 5:1.5279776 6:1.4384205 7:0.18091908 8:0.56990861 9:-0.0073520115 10:0.14674419 11:-0.32225704 12:0.40236009 
-7.533908915007167 1:-0.39594087 2:0.72041213 3:0.74077337 4:0.93983387 5:1.4594154 6:2.353592 7:0.32357027 8:0.52992817 9:-0.34195914 10:0.54677688 11:-0.7627113 12:-0.024628247 
-7.533908915007167 1:-0.53345968 2:-0.13342854 3:0.85958729 4:-0.13553797 5:1.6046752 6:0.21263244 7:-0.84545022 8:0.0046280107 9:0.7490154 10:-0.79071895 11:0.74860705 12:-0.93264743 
-0.1823896357875425 1:-0.30426167 2:1.3526737 3:-0.30746729 4:-1.2022602 5:-0.12115729 6:-0.70871074 7:-1.1821746 8:-0.87428039 9:0.95344883 10:-0.95862041 11:0.84436402 12:-1.2509523 
-0.03051151914481136 1:1.8436511 2:-2.5430174 3:-1.5899726 4:-2.0157036 5:-1.2186619 6:-0.5521303 7:-1.535126 8:-1.0748052 9:0.51691802 10:-0.56608995 11:0.56283851 12:-1.1665747 
-0.2479759878165209 1:0.99889269 2:-4.2734587 3:-1.3319081 4:-1.8432516 5:-1.0344671 6:-0.72190547 7:-1.4389654 8:-1.0681547 9:0.79506288 10:-0.85296534 11:0.82552397 12:-0.88717875 
-0.8639572584955322 1:0.78934023 2:0.65380099 3:-1.1748356 4:-0.72970115 5:-0.83698022 6:0.61982173 7:-0.38154286 8:-0.93187674 9:-3.5394305 10:3.7784292 11:-3.6325084 12:0.073853918 
-0.0918451815914457 1:0.65182143 2:0.72147975 3:-1.1354511 4:-0.65834682 5:-0.79774094 6:0.80132144 7:-0.32548414 8:-0.90311244 9:-3.2534339 10:3.5487475 11:-3.5103469 12:0.13612072 
-0.6308399848005044 1:2.0204609 2:-2.096654 3:2.1900064 4:-0.082206721 5:3.2520639 6:-0.65825756 7:-1.5156075 8:-1.0783623 9:0.61023533 10:-0.76172956 11:0.87617562 12:-1.0514383 
-0.1935599705877826 1:1.588259 2:-1.9587296 3:2.1758858 4:-0.10061936 5:3.2465346 6:-0.65375266 7:-1.5320959 8:-1.0774277 9:0.94977902 10:-0.89647696 11:0.70866886 12:-1.3247269 
-0.4339061789731254 1:0.91376201 2:-1.9044559 3:2.190465 4:-0.029695132 5:2.5271126 6:-0.95920559 7:-1.1426168 8:-1.1055156 9:-2.3331704 10:1.2520827 11:0.41198633 12:-0.29373253 
