svm_type nu_svc
kernel_type rbf
gamma 0.0833333
nr_class 2
total_sv 58
rho 0.373953
label 2 1
probA -5.3867
probB 0.118989
nr_sv 21 37
SV
0.3572111703242051 1:2.6296473 2:-2.1485602 3:2.5332509 4:0.95651459 5:2.1624576 6:-0.63394505 7:-0.50026359 8:-0.75749264 9:0.6809255 10:0.95804474 11:-3.2567849 12:-0.66642305 
1.355890981558772 1:1.9414082 2:-0.89384366 3:2.4580075 4:0.91074594 5:-0.058302289 6:-0.96441651 7:1.1291056 8:-0.74615996 9:-0.25889524 10:5.8215119 11:-13.258141 12:3.5228519 
0.9400042485749942 1:0.33241678 2:-2.412835 3:2.449479 4:0.89907972 5:2.4775431 6:-0.75346911 7:-0.80759448 8:-0.76138265 9:0.16417812 10:-0.068209019 11:-0.084058516 12:-0.7706304 
1.355890981558772 1:2.0390637 2:-1.4819722 3:2.5445705 4:0.97124348 5:0.19246465 6:-0.95994993 7:1.0110276 8:-0.77656728 9:-10.07662 10:6.5319593 11:-0.3376357 12:3.0559817 
0.1635275668840648 1:0.47657497 2:-2.3081161 3:2.6125312 4:1.0154618 5:2.5240715 6:-0.70042375 7:-0.70423807 8:-0.74623561 9:0.78332656 10:-0.072973754 11:-0.9927139 12:-0.87077583 
0.400296795060401 1:1.0857596 2:-2.2883435 3:2.6282107 4:1.0331279 5:3.2685676 6:-0.52298872 7:-1.2477076 8:-0.76037244 9:0.90983275 10:-0.95740146 11:0.89200919 12:-1.1061523 
1.355890981558772 1:0.63003369 2:-0.87945711 3:1.4139035 4:0.19457736 5:1.7339138 6:-0.59520896 7:-1.0829548 8:-0.76668819 9:0.43425203 10:-0.61760634 11:0.80223048 12:0.90487044 
1.121566623781706 1:1.0439072 2:-1.0173523 3:1.4075271 4:0.1656348 5:1.4466617 6:-0.67674814 7:-0.89962295 8:-0.75873843 9:0.34381626 10:0.04724032 11:-0.62148965 12:-0.67680585 
0.5941768607398685 1:3.0760726 2:-0.020670116 3:1.409947 4:0.16616269 5:1.2067885 6:-0.65283125 7:-0.71711044 8:-0.76303893 9:-2.7753779 10:1.6144175 11:0.33976634 12:-0.58795927 
0.7765237007102248 1:3.6573557 2:-0.073998261 3:1.4595913 4:0.19333017 5:1.2077972 6:-0.7350031 7:-0.68551277 8:-0.76054322 9:-2.1738906 10:3.0095743 11:-3.8233789 12:0.27777235 
0.785213720416223 1:1.79725 2:-2.0345944 3:2.6190885 4:1.0249749 5:0.1176776 6:-0.67871786 7:1.1317408 8:-0.76202571 9:-1.3732275 10:1.1106613 11:-0.5627446 12:2.0996542 
0.6615342442960772 1:2.2948283 2:-1.8966681 3:2.5950396 4:1.0067334 5:2.4621114 6:-0.7141596 7:-0.66765425 8:-0.76256871 9:-1.8906121 10:1.1948136 11:0.0086826248 12:4.2008878 
0.04630918250241588 1:1.7414468 2:-2.8687132 3:2.6848565 4:1.0625178 5:2.0133547 6:-0.82587278 7:-0.26093342 8:-0.76068568 9:-1.7733977 10:2.4824098 11:-3.1829463 12:-0.2711908 
0.6786415372458481 1:0.76024109 2:-2.7071885 3:2.6817154 4:1.0622812 5:2.2059016 6:-1.1194831 7:-0.40721378 8:-0.77999444 9:-3.5621143 10:2.8046934 11:-1.2808609 12:-0.22420313 
0.01185880908792212 1:4.331644 2:-0.37050674 3:1.3946567 4:0.14866003 5:1.6515708 6:-0.5698684 7:-1.0752158 8:-0.76036957 9:-0.084729894 10:-0.16927083 11:0.52256435 12:-0.41691865 
0.4760161193547121 1:1.5879881 2:-1.4217082 3:1.4060647 4:0.16598035 5:1.0885134 6:-0.91813622 7:-0.62764559 8:-0.76674828 9:-3.4519151 10:2.9940687 11:-1.8883781 12:0.17677993 
1.355890981558772 1:1.0067051 2:-0.74348668 3:1.4117876 4:0.19297391 5:1.6779449 6:-0.60452874 7:-1.0424264 8:-0.76367226 9:0.27523278 10:-0.44897092 11:0.64327476 12:1.0168197 
0.09805446839686892 1:3.7364102 2:-0.77094161 3:1.4194548 4:0.19972451 5:1.3695698 6:-0.77407698 7:-0.80055973 8:-0.76146331 9:-2.2076431 10:1.1849317 11:0.50282969 12:2.6494694 
0.5831823796136672 1:3.8294154 2:-1.5497014 3:1.4478858 4:0.19057337 5:1.3735144 6:-0.53896238 7:-0.81445174 8:-0.76044353 9:-2.130775 10:2.5623628 11:-2.8393887 12:3.2240034 
0.04124062280359648 1:3.3550885 2:-2.4387288 3:2.4111155 4:0.88621044 5:2.2707393 6:-0.56642872 7:-0.66611581 8:-0.76063244 9:-2.8967924 10:1.4870364 11:0.81866118 12:-0.37273224 
1.355890981558772 1:1.0113554 2:-2.1602943 3:2.6294308 4:1.0289728 5:3.2505246 6:-0.54657572 7:-1.2389761 8:-0.76102295 9:0.83202487 10:-0.93874772 11:0.96388725 12:-1.0182827 
-0.09185814764973325 1:-0.37442337 2:0.61966467 3:-0.55209691 4:1.8426569 5:-1.0055639 6:-3.9030565 7:2.9574763 8:1.5228247 9:-0.80162547 10:0.76513402 11:-0.60218419 12:1.7204775 
-1.250023713633201 1:-0.49998051 2:-1.3384341 3:2.7630928 4:1.4855037 5:2.920046 6:-0.91395465 7:-0.44456262 8:-0.087578692 9:0.82513388 10:-0.87444261 11:0.8234251 12:-0.48709294 
-0.4943566561516847 1:-0.51858156 2:0.24894653 3:-0.32205621 4:0.78816588 5:-0.74704858 6:3.0636324 7:1.5053273 8:-1.6328639 9:0.074131104 10:0.53824741 11:-1.3715182 12:5.4973007 
-0.02357546317093642 1:-0.4488276 2:1.5096316 3:1.4674995 4:1.5390673 5:-0.63893168 6:-0.44686064 7:2.3178358 8:1.9365816 9:0.6013963 10:-0.73757697 11:0.8350692 12:0.081613302 
-1.135636197216919 1:-0.46742866 2:-1.5606218 3:2.3507333 4:1.5806488 5:2.6950862 6:-1.1898981 7:-0.16064832 8:0.047019508 9:0.59263812 10:-0.68763774 11:0.73104754 12:-0.67262684 
-0.09898173657979018 1:-0.30931967 2:0.87462652 3:-0.12006255 4:1.6006475 5:-1.0012554 6:-4.397392 7:2.6659231 8:0.98956004 9:-1.2294941 10:1.8054963 11:-2.40463 12:1.3470533 
-1.220642747257724 1:-0.50928103 2:-0.051433071 3:2.3425585 4:0.88263622 5:2.654911 6:-0.82611575 7:-0.96167141 8:-1.0686976 9:0.89161171 10:-0.93662103 11:0.87037971 12:-1.0090946 
-0.4471381434949079 1:-0.27676782 2:0.3466676 3:-0.028304456 4:0.97764876 5:-0.70666106 6:-4.8078409 7:1.7004191 8:0.12344072 9:-1.3866515 10:2.7980123 11:-4.4971228 12:0.37325013 
-0.1972776551238588 1:-0.55578368 2:0.53431858 3:-0.56103124 4:1.3124292 5:-0.82060526 6:-0.31908886 7:2.1856142 8:4.3934023 9:0.5540863 10:-0.69863357 11:0.81408984 12:1.4132002 
-0.006577601921803234 1:-0.54183288 2:0.89419498 3:-0.75499894 4:1.2441449 5:-0.81582604 6:-0.040072304 7:2.1006487 8:3.6937998 9:0.57086367 10:-0.68464869 11:0.75639132 12:0.35588791 
-0.467238166862169 1:-0.46742866 2:0.1594859 3:2.5344992 4:1.8410418 5:-0.52618076 6:-2.6568692 7:2.5920604 8:1.0595279 9:0.22303893 10:0.62643579 11:-1.7994094 12:2.5422704 
-0.07192111236472303 1:-0.45347786 2:1.1591306 3:-0.64885017 4:2.0374079 5:-1.0723087 6:-2.532527 7:3.2400764 8:2.8714372 9:-0.18807788 10:-0.14601684 11:0.62160463 12:1.2162619 
-0.1324518261392001 1:-0.54648315 2:-0.36664838 3:-0.73197475 4:1.027582 5:-0.54938016 6:0.55153808 7:1.6406424 8:3.7243045 9:0.36131246 10:-0.45421889 11:0.52769141 12:1.8645544 
-0.2162626707406633 1:-0.52788209 2:0.67785806 3:1.5034976 4:1.8157032 5:-1.0129347 6:-1.8279319 7:2.9309574 8:3.9467088 9:0.46780508 10:-0.5249817 11:0.53531668 12:2.3224771 
-0.4400415528208836 1:-0.37442337 2:0.62501591 3:-0.50915113 4:0.45573352 5:-0.51861608 6:5.4387306 7:0.93611872 8:-0.18494054 9:-2.0539229 10:2.7086648 11:-3.2964221 12:0.61790687 
-0.1630232008865537 1:-0.45812813 2:0.1643436 3:-0.45710953 4:1.8243539 5:-0.44986273 6:-3.8440199 7:2.5143133 8:1.8798902 9:0.051587455 10:-0.21531024 11:0.4279418 12:0.8870645 
-0.2625855580388229 1:-0.45347786 2:-1.517935 3:3.2867408 4:1.9327142 5:3.3718166 6:-1.1014703 7:-0.25439159 8:-0.084765174 9:0.47803998 10:-0.64226793 11:0.79497272 12:-0.48664558 
-0.01359452344231731 1:-0.54183288 2:1.932589 3:0.12858014 4:1.311859 5:0.025659681 6:-1.2857449 7:1.5432551 8:2.745082 9:0.59601868 10:-0.77838805 11:0.9386994 12:-0.20997439 
-0.07349550819957976 1:-0.54648315 2:1.956343 3:0.31875863 4:1.1920289 5:-0.0014022842 6:-0.45546364 7:1.4210308 8:2.8357209 9:0.63841066 10:-0.77694026 11:0.87232797 12:-0.24589068 
-0.2465763875719162 1:0.49517603 2:-0.64265989 3:-1.0665552 4:-1.5362494 5:-1.0696589 6:-0.44316783 7:-1.0189414 8:-0.75489414 9:0.58525426 10:-0.4225264 11:0.12072657 12:8.0688286 
-0.03052924349678409 1:0.80209346 2:0.33684078 3:-1.1996502 4:-1.5673976 5:-1.083675 6:-0.1978008 7:-1.0454181 8:-0.76583003 9:0.29235968 10:-0.21170227 11:0.061789566 12:9.4386175 
-1.355890981558772 1:0.15570674 2:-0.85483931 3:0.26640484 4:0.16170612 5:0.5800337 6:0.033721459 7:-0.24718276 8:-0.69307821 9:-1.3421747 10:1.1468203 11:-0.69361638 12:0.80342729 
-0.2333475319583501 1:-0.14191016 2:-0.97247504 3:0.42282271 4:0.20061996 5:0.79842759 6:0.34190514 7:-0.36642486 8:-0.62035957 9:-0.65100605 10:0.60714861 11:-0.4557078 12:-0.50474976 
-0.1839860555283564 1:0.011548554 2:2.1595265 3:-1.1626778 4:-1.3019197 5:-1.102595 6:-1.5789411 7:-0.71482961 8:-0.72523067 9:-2.3135315 10:1.1488164 11:0.74477634 12:-0.21305002 
-0.3033933124406131 1:-0.3837239 2:2.4348809 3:-1.2455718 4:-1.6858123 5:-1.0874588 6:-0.27416141 7:-1.1836068 8:-0.74900423 9:0.81611586 10:-0.8561767 11:0.79401616 12:-0.95115768 
-0.114058976046158 1:0.64398448 2:0.90089828 3:-1.1029484 4:-1.1093454 5:-0.96650322 6:0.13564613 7:-0.58862298 8:-0.72492481 9:-1.9355587 10:1.9808612 11:-1.7666528 12:3.5503611 
-0.05651403577010245 1:-0.10470805 2:-0.41077968 3:0.37245403 4:-0.19854313 5:0.7279429 6:-0.20378136 7:-0.78847054 8:-0.70221064 9:0.21244707 10:-0.26036948 11:0.29456166 12:0.46902869 
-0.409335824133256 1:0.3556681 2:1.5287411 3:-1.1837921 4:-1.230913 5:-1.0627098 6:-2.9426878 7:-0.66048803 8:-0.72482136 9:-3.7484568 10:2.6910053 11:-0.73759704 12:2.0396114 
-0.05043884417169126 1:0.75559082 2:0.83965757 3:-1.115435 4:-1.4799321 5:-0.97260396 6:-0.8306811 7:-1.025447 8:-0.75923107 9:0.33978373 10:0.024802844 11:-0.56291642 12:6.9400797 
-1.355890981558772 1:-0.22561492 2:-1.4460077 3:0.34052874 4:-0.41025603 5:0.66595023 6:-0.26909798 7:-0.99366116 8:-0.70973582 9:0.58770986 10:-0.64254147 11:0.63268559 12:-0.96529965 
-0.4249221409265938 1:0.36031837 2:1.5374008 3:-1.1839763 4:-1.1902807 5:-1.0215099 6:-2.855404 7:-0.64332586 8:-0.73958252 9:-1.3622855 10:2.7312448 11:-4.3768514 12:1.1134149 
-1.355890981558772 1:0.044100403 2:-0.76349842 3:0.31497682 4:-0.42201542 5:0.64128982 6:-0.26886319 7:-0.9889704 8:-0.72542925 9:0.41533209 10:-0.53690747 11:0.64121994 12:2.6878635 
-0.5486980033874985 1:-0.081456729 2:-0.60140373 3:0.35398766 4:1.1152309 5:0.72129097 6:1.8624928 7:0.78156591 8:-0.38655513 9:-2.8454076 10:3.0343298 11:-2.8837723 12:-0.28695624 
-0.1986359238611271 1:-0.40232496 2:2.2214496 3:0.35650264 4:1.2991948 5:0.70451936 6:2.904441 7:1.0134243 8:0.58068081 9:-0.74461928 10:0.95521366 11:-1.1323271 12:-0.13841056 
-0.06535187953805612 1:-0.48602971 2:1.7838106 3:0.43195313 4:1.3598123 5:0.708978 6:2.1978454 7:1.0822523 8:1.4327533 9:0.16842217 10:-0.043354083 11:-0.1486113 12:-0.16657064 
-0.5593865526018425 1:2.0158124 2:0.44847064 3:-1.2803503 4:-1.5798397 5:-1.1390465 6:-0.41018429 7:-1.018254 8:-0.75917421 9:0.28154435 10:-0.055994159 11:-0.28704619 12:12.508057 
-0.2152831197825233 1:0.76954162 2:1.0428106 3:-1.2044471 4:-1.5867258 5:-1.0759199 6:-0.6358589 7:-1.0743225 8:-0.76005265 9:0.63343156 10:-0.51931389 11:0.27597548 12:7.1686037 
